tree
version=v3
num_class=1
num_tree_per_iteration=1
label_index=0
max_feature_idx=171
objective=binary sigmoid:1
feature_names=Column_0 Column_1 Column_2 Column_3 Column_4 Column_5 Column_6 Column_7 Column_8 Column_9 Column_10 Column_11 Column_12 Column_13 Column_14 Column_15 Column_16 Column_17 Column_18 Column_19 Column_20 Column_21 Column_22 Column_23 Column_24 Column_25 Column_26 Column_27 Column_28 Column_29 Column_30 Column_31 Column_32 Column_33 Column_34 Column_35 Column_36 Column_37 Column_38 Column_39 Column_40 Column_41 Column_42 Column_43 Column_44 Column_45 Column_46 Column_47 Column_48 Column_49 Column_50 Column_51 Column_52 Column_53 Column_54 Column_55 Column_56 Column_57 Column_58 Column_59 Column_60 Column_61 Column_62 Column_63 Column_64 Column_65 Column_66 Column_67 Column_68 Column_69 Column_70 Column_71 Column_72 Column_73 Column_74 Column_75 Column_76 Column_77 Column_78 Column_79 Column_80 Column_81 Column_82 Column_83 Column_84 Column_85 Column_86 Column_87 Column_88 Column_89 Column_90 Column_91 Column_92 Column_93 Column_94 Column_95 Column_96 Column_97 Column_98 Column_99 Column_100 Column_101 Column_102 Column_103 Column_104 Column_105 Column_106 Column_107 Column_108 Column_109 Column_110 Column_111 Column_112 Column_113 Column_114 Column_115 Column_116 Column_117 Column_118 Column_119 Column_120 Column_121 Column_122 Column_123 Column_124 Column_125 Column_126 Column_127 Column_128 Column_129 Column_130 Column_131 Column_132 Column_133 Column_134 Column_135 Column_136 Column_137 Column_138 Column_139 Column_140 Column_141 Column_142 Column_143 Column_144 Column_145 Column_146 Column_147 Column_148 Column_149 Column_150 Column_151 Column_152 Column_153 Column_154 Column_155 Column_156 Column_157 Column_158 Column_159 Column_160 Column_161 Column_162 Column_163 Column_164 Column_165 Column_166 Column_167 Column_168 Column_169 Column_170 Column_171
feature_infos=[-0.95777057847651925:2.5679375417473311] [-1.6361041389269433:2.4378904042896918] [0:1] [0:1] [0:1] [-2.0595209265500256:1.6090810631080257] [0:1] [0:1] [0:1] [-2.124021932325022:1.0044957506193612] [-1.086726864721882:3.3630770507544763] [-1.9544649111556949:4.0768182676811193] [-2.82012018490969:0.78556912129117151] [-4.7968304135338959:15.163315319508854] [-2.3243852933304421:11.487440968763286] [-3.5756210643224668:1.0086075915630135] [-4.2021390384697126:0.92376475161955862] [-1.5168114797985208:7.8365170897147758] [0:1] [0:1] [0:1] [0:1] [0:1] [0:1] [0:1] [0:1] [0:1] [0:1] [0:1] [0:1] [0:1] [0:1] [0:1] [0:1] [0:1] [0:1] [0:1] [0:1] [0:1] [0:1] [0:1] [0:1] [0:1] [0:1] [0:1] [0:1] [0:1] [0:1] [0:1] [0:1] [0:1] [0:1] [0:1] [0:1] [0:1] [0:1] [0:1] [0:1] [0:1] [0:1] [0:1] [0:1] [0:1] [0:1] [0:1] [0:1] [0:1] [0:1] [0:1] [0:1] [0:1] [0:1] [0:1] [0:1] [0:1] [0:1] [0:1] [0:1] [0:1] [0:1] [0:1] [0:1] [0:1] [0:1] [0:1] [0:1] [0:1] [0:1] [0:1] [0:1] [0:1] [0:1] [0:1] [0:1] [0:1] [0:1] [0:1] [0:1] [0:1] [0:1] [0:1] [0:1] [0:1] [0:1] [0:1] [0:1] [0:1] [0:1] [0:1] [0:1] [0:1] [0:1] [0:1] [0:1] [0:1] [0:1] [0:1] [0:1] [0:1] [0:1] [0:1] [0:1] [0:1] [0:1] [0:1] [0:1] [0:1] [0:1] [0:1] [0:1] [0:1] [0:1] [0:1] [0:1] [0:1] [0:1] [0:1] [0:1] [0:1] [0:1] [0:1] [0:1] [0:1] [0:1] [0:1] [0:1] [0:1] [0:1] [0:1] [0:1] [0:1] [0:1] [0:1] [0:1] [0:1] [0:1] [0:1] [0:1] [0:1] [0:1] [0:1] [0:1] [0:1] [0:1] [0:1] [0:1] [0:1] [0:1] [0:1] [0:1] [0:1] [0:1]
tree_sizes=3356 3390 3395 3407 3406 3403 3407 3412 3417 3403 3415 3421 3410 3404 3396 3408 3410 3404 3423 3401 3414 3413 3402 3405 3415 3411 3422 3397 3404 3415 3419 3395 3409 3410 3427 3404 3422 3406 3414 3415 3403 3424 3396 3412 3401 3402 3400 3415 3373 3403 3412 3407 3389 3406 3420 3408 3391 3414 3390 3420 3397 3412 3430 3409 3424 3427 3429 3427 3413 3421 3424 3421 3442 3429 3424 3442 3416 3443 3426 3446 3448 3437 3434 3438 3442 3459 3477 3441 3431 3445 3453 3468 3449 3474 3452 3473 3459 3457 3457 3452 3434 3442 3464 3473 3460 3474 3448 3452 3469 3460 3454 3462 3462 3477 3457 3457 3457 3464 3466 3469 3475 3486 3458 3474 3443 3453 3456 3462 3455 3459 3471 3453 3459 3450 3474 3469 3455 3471 3467 3457 3454 3467 3459 3445 3442 3454 3447 3455 3462 3460 3452 3455 3451 3483 3446 3460 3464 3443 3447 3488 3467 3440 3460 3462 3454 3461 3474 3453 3465 3457 3475 3485 3439 3455 3449 3465 3465 3462 3449 3466 3483 3479 3457 3456 3461 3448 3468 3445 3460 3467 3462 3468 3471 3479 3440 3473 3466 3460 3470 3454 3461 3457 3484 3490 3474 3497 3455 3459 3447 3468 3475 3452 3478 3475 3454 3463 3462 3480 3450 3474 3485 3468 3459 3458 3467 3466 3456 3477 3456 3473 3488 3485 3457 3477 3466 3476 3502 3466 3466 3486 3479 3474 3483 3463 3475 3457 3482 3475 3485 3475 3476 3483 3456 3455 3451 3488 3466 3471 3485 3456 3497 3464 3474 3499 3447 3474 3473 3494 3487 3459 3493 3465 3478 3483 3459 3481 3486 3483 3507 3470 3486 3450 3469 3500 3470 3507 3478 3504 3478 3477 3446 3483 3488 3498 3486 3500 3466 3480 3478 3467 3512 3497 3476 3501 3482 3480 3475 3489 3479 3490 3500 3483 3472 3498 3473 3480 3473 3487 3478 3470 3486 3491 3489 3506 3481 3492 3481 3482 3482 3447 3486 3477 3489 3504 3477 3494 3438 3491 3504 3469 3416 3482 3496 3487 3456 3494 3437 3500 3414 3455 3504 3497 3412 3479 3482 3475 3483 3471 3472 3425 3487 3474 3465 3452 3473 3483 3449 3477

Tree=0
num_leaves=30
num_cat=0
split_feature=14 20 20 11 14 6 7 2 68 42 7 9 14 14 11 11 14 7 5 5 0 2 2 11 7 1 1 10 2
split_gain=83710.1 30923.6 23823 21798.5 15211.1 10674.2 8566.78 8078.54 8033.43 6158 5887.94 5203 5148.73 4919.07 4527.13 4112.01 3698.41 3670.95 3473.71 2971.28 2810.57 2712.77 2569.65 2409.4 2308.24 2061.31 2052.32 1989.54 1892.99
threshold=0.085843315911028159 1.0000000180025095e-35 1.0000000180025095e-35 0.15588833302177088 1.2493025930244948 1.0000000180025095e-35 1.0000000180025095e-35 1.0000000180025095e-35 1.0000000180025095e-35 1.0000000180025095e-35 1.0000000180025095e-35 1.0000000180025095e-35 -0.92192764432628882 -0.52116496816918434 0.50678086279973666 0.11282118151827393 2.3864993970154162 1.0000000180025095e-35 0.90358068048147755 -0.22521993172099997 1.0000000180025095e-35 1.0000000180025095e-35 1.0000000180025095e-35 1.2912350647180788 1.0000000180025095e-35 -1.0805594284883109 -1.4509225687807323 -0.46869854312794318 1.0000000180025095e-35
decision_type=2 2 2 2 2 2 2 2 2 2 2 2 2 2 2 2 2 2 2 2 2 2 2 2 2 2 2 2 2
left_child=1 7 14 8 5 20 9 17 -3 12 13 23 -5 -10 28 -9 24 -1 21 -15 -4 -14 -12 -7 -6 -20 -13 -21 -2
right_child=2 3 4 6 16 11 -8 15 10 -11 22 26 18 19 -16 -17 -18 -19 25 27 -22 -23 -24 -25 -26 -27 -28 -29 -30
leaf_value=-3.1171734886904598 -3.0963199378583037 -3.1330664418559837 -3.1314889815698699 -3.1759704555191228 -3.1243369838081581 -3.1597221879666706 -3.1264747843759118 -3.1655063458956154 -3.189578319740936 -3.11381053091496 -3.1336249145690331 -3.0695023418269374 -3.1436857017037694 -3.1600895568856924 -3.0737521949166742 -3.1278130207577584 -3.0981480218812258 -3.077239128029599 -3.1171560012201893 -3.1870498340199958 -3.1122988586344125 -3.1594527754400255 -3.1707843764792085 -3.0935493292427934 -3.0985208420931194 -3.1709979545905256 -3.1382145621605742 -3.1643507368575721 -3.1260070821945747
leaf_weight=1222.9232366457582 751.8450902402401 439.81134461611509 1546.7638011053205 1196.2440880462527 1844.5864187926054 2008.7710913494229 1217.9678384959698 523.71011551469564 2984.8971145227551 345.63448536396027 404.79177019745111 44.134829498827457 3055.6261448264122 1302.2435007989407 847.9165925681591 646.93043952435255 1263.9114728495479 283.56443493813276 75.539517000317574 1231.6377126649022 1506.5735098049045 1697.3804761022329 344.44821733981371 56.573346994817257 426.39525347948074 1211.2985686436296 2880.6698231771588 562.47203968465328 300.68984172493219
leaf_count=15058 7749 6088 21176 21497 23984 32958 16087 8884 57548 4144 5625 341 45419 21412 6898 8628 13249 2402 930 23446 17844 27805 6018 568 4485 21188 41302 9479 3958
internal_value=-3.27477 -3.15644 -3.12376 -3.16168 -3.12915 -3.13675 -3.15109 -3.12497 -3.17449 -3.15505 -3.17716 -3.14576 -3.15702 -3.18042 -3.09095 -3.14468 -3.11186 -3.10966 -3.15326 -3.17159 -3.12202 -3.14932 -3.15071 -3.15791 -3.11949 -3.16784 -3.13718 -3.17993 -3.1048
internal_weight=0 18747.1 13478.8 16070 11578.4 8043.49 8799.69 2677.13 7270.3 7581.72 6830.49 4990.15 7236.09 6081.25 1900.45 1170.64 3534.89 1506.49 6039.84 3096.35 3053.34 4753.01 749.24 2065.34 2270.98 1286.84 2924.8 1794.11 1052.53
internal_count=476170 301658 174512 266686 155907 114189 137070 34972 129616 120983 123528 75169 116839 111885 18605 17512 41718 17460 95342 54337 39020 73224 11643 33526 28469 22118 41643 32925 11707
shrinkage=1


Tree=1
num_leaves=30
num_cat=0
split_feature=14 11 20 20 7 6 20 14 5 67 5 9 14 14 10 2 17 14 11 11 2 7 7 11 16 34 2 1 14
split_gain=55667.2 21513.9 14300.5 11718.4 10134.7 9947.04 7613.44 6259.34 5802.7 5081.99 4055.28 3668.55 3631.31 2927.46 2685.82 2644.43 2639.31 2561.88 2526.37 2498.82 2388.91 2385.68 2320.64 2197.12 2089.03 1843.45 1811.82 1795.67 1698.41
threshold=0.096661754207146997 0.26388586927681329 1.0000000180025095e-35 1.0000000180025095e-35 1.0000000180025095e-35 1.0000000180025095e-35 1.0000000180025095e-35 1.8081302884232684 1.0000000180025095e-35 1.0000000180025095e-35 0.33918037438023879 1.0000000180025095e-35 0.81720723989012545 -0.89551833538512338 0.52014677142235854 1.0000000180025095e-35 1.0000000180025095e-35 -0.59654475214087055 -0.082019045339932747 0.5141874859945087 1.0000000180025095e-35 1.0000000180025095e-35 1.0000000180025095e-35 0.31625758561565859 -0.20979639451777174 1.0000000180025095e-35 1.0000000180025095e-35 -1.4509225687807323 -0.094243924620903891
decision_type=2 2 2 2 2 2 2 2 2 2 2 2 2 2 2 2 2 2 2 2 2 2 2 2 2 2 2 2 2
left_child=1 4 19 21 6 12 -1 11 17 10 22 23 16 -12 28 -10 -4 -8 25 -2 -6 -3 26 -7 -17 -19 -5 -28 -15
right_child=2 3 5 9 20 7 8 -9 15 -11 13 -13 -14 14 -16 24 -18 18 -20 -21 -22 -23 -24 -25 -26 -27 27 -29 -30
leaf_value=0.11389150999416994 0.14391527177059846 0.13636974121870005 0.14234659140381495 0.11735812480278698 0.13181770716164321 0.099444392631520606 0.087865251129512698 0.13854918330657737 0.089024201283396207 0.14040814070182966 0.077419671660089132 0.12114648327055212 0.14521035197891199 0.089616731370170302 0.11645368103106045 0.061777340636194285 0.12137912306259084 0.10111501263651301 0.1103602729735246 0.16520790472704891 0.10628469033146157 0.1687506591751064 0.13275252784500205 0.11871523549772502 0.081356409571365237 0.073727468168511126 0.14768449531978364 0.099788620450081245 0.11900678337626211
leaf_weight=1435.3402478024364 1224.5414512380958 1132.6735220775008 913.60585499182343 2494.9890310242772 825.12188705801964 1770.9607400484383 1926.0034564658999 1353.8292981907725 1943.3924726210535 569.6110989227891 475.52560614794493 3859.6310844495893 2581.6123572438955 1067.5923682786524 1058.4733140915632 944.80561468377709 1750.8445472568274 639.96124857291579 1713.8090441860259 1002.2791060507298 659.16607896983624 284.72167194634676 653.58131324127316 888.43591760843992 1287.6674964465201 398.99563324451447 83.604727942496538 1228.1560363806784 241.01595325767994
leaf_count=18816 11621 11980 9156 32405 9125 26444 32075 13687 31905 6078 8248 47770 24568 16928 14015 18145 21134 9570 23962 6782 9419 1945 7227 11471 22147 7053 876 18487 3131
internal_value=0 0.105028 0.130068 0.116405 0.0960507 0.126091 0.0925271 0.118983 0.0890639 0.11164 0.109396 0.11492 0.136758 0.100061 0.10461 0.0804951 0.128569 0.0967117 0.102901 0.153499 0.120479 0.142874 0.115345 0.105882 0.0730703 0.0905972 0.112356 0.102841 0.0950297
internal_weight=0 21064.2 15345.7 9289.94 11774.3 13118.9 10290 7872.86 8854.63 7872.55 7302.94 6519.03 5246.06 2842.61 2367.08 4175.87 2664.45 4678.77 2752.77 2226.82 1484.29 1417.4 4460.33 2659.4 2232.47 1038.96 3806.75 1311.76 1308.61
internal_count=476170 303537 172633 121320 182217 154230 163673 99372 144857 107395 101317 85685 54858 42322 34074 72197 30290 72660 40585 18403 18544 13925 58995 37915 40292 16623 51768 19363 20059
shrinkage=0.01


Tree=2
num_leaves=30
num_cat=0
split_feature=14 20 7 10 14 20 5 11 2 2 68 67 1 20 11 1 2 14 5 11 40 33 40 5 7 9 0 5 1
split_gain=39992.6 13908.8 11852.7 10235.8 8175.22 5985.54 5852.09 3660.18 3375.96 2997.65 2987.4 2892.04 3011.53 2735.63 2509.02 2467.85 2425.39 2341.13 2153.69 2103.72 1900.87 1889.45 1760.79 1914.26 1699.59 1602.5 1583.81 1772.86 1533.97
threshold=-0.10210503371839678 1.0000000180025095e-35 1.0000000180025095e-35 -0.22148721449036771 1.4198598507694871 1.0000000180025095e-35 1.0000000180025095e-35 0.094811311207794208 1.0000000180025095e-35 1.0000000180025095e-35 1.0000000180025095e-35 1.0000000180025095e-35 -1.4509225687807323 1.0000000180025095e-35 0.32212691948899802 1.0000000180025095e-35 1.0000000180025095e-35 -0.92192764432628882 0.33918037438023879 -0.10343754446571433 1.0000000180025095e-35 1.0000000180025095e-35 1.0000000180025095e-35 0.90358068048147755 1.0000000180025095e-35 0.83068921267800666 1.0000000180025095e-35 -0.22521993172099997 0.40089313268137428
decision_type=2 2 2 2 2 2 2 2 2 2 2 2 2 2 2 2 2 2 2 2 2 2 2 2 2 2 2 2 2
left_child=1 8 4 6 5 14 10 21 -1 24 -3 12 -5 -4 -2 -6 20 -14 -15 -10 -12 26 23 -19 -8 -11 27 -7 -28
right_child=2 3 13 11 15 7 9 -9 19 25 16 -13 17 18 -16 -17 -18 22 -20 -21 -22 -23 -24 -25 -26 -27 28 -29 -30
leaf_value=0.12205854697288278 0.10982678990944544 0.11659663252044071 0.14778881600923355 0.13366094502879938 0.11304257572936857 0.10168891760594831 0.079515491685624842 0.10667636138534854 0.072678173598907186 0.062115066770131809 0.091253226544127819 0.12033814957151656 0.082313775448801446 0.13059993540931031 0.13280868830052814 0.12957986616776571 0.080611833631904078 0.098675497572725604 0.11174023839775644 0.10636234485002699 0.11700360796076932 0.073350757051468693 0.1107065914406504 0.082030370323694188 0.10638166141820653 0.08146160343261484 0.096821617507237168 0.083557952418688658 0.12106995455309058
leaf_weight=1677.1477686166763 900.73007849603891 386.94204089790583 649.57316537201405 210.92009727656841 1594.1005350761116 1013.4391411319375 1880.5143626220524 7746.2191258519888 222.55870276689529 1839.804106913507 2027.1545012481511 549.62847395986319 1148.3694091551006 2079.5954774022102 1005.1598102375865 2079.5810387805104 2394.8353384137154 3557.8865208029747 854.21553890034556 1110.8454849310219 333.88875271007419 378.43330350145698 911.88093311339617 857.4254569709301 269.1728588566184 557.99898609891534 628.27252961322665 1152.7280425727367 446.14849405363202
leaf_count=15018 9057 4057 3690 1888 15564 12144 28618 87246 3384 31753 27483 5354 16960 16840 7056 16733 35839 44206 8528 12435 3629 5611 10285 12427 2961 8553 7914 16338 4599
internal_value=0 0.0928114 0.112696 0.0892889 0.109202 0.105548 0.082569 0.102797 0.112616 0.0743047 0.0898765 0.0982879 0.0964754 0.12922 0.121947 0.122404 0.0877025 0.0952642 0.125109 0.10074 0.0948947 0.0944949 0.0980558 0.0954431 0.0828795 0.0666172 0.0969641 0.0920405 0.106891
internal_weight=0 19937 20528.2 16926.4 16944.8 13271.1 9690.31 11365.2 3010.55 4547.49 5142.82 7236.11 6686.48 3583.38 1905.89 3673.68 4755.88 6475.56 2933.81 1333.4 2361.04 3619.02 5327.19 4415.31 2149.69 2397.8 3240.59 2166.17 1074.42
internal_count=476170 264850 211320 234013 182262 149965 142893 133852 30837 71885 71008 91120 85766 29058 16113 32297 66951 83878 25368 15819 31112 46606 66918 56633 31579 40306 40995 28482 12513
shrinkage=0.01


Tree=3
num_leaves=30
num_cat=0
split_feature=14 7 11 20 14 20 2 68 1 68 20 2 17 16 7 11 2 2 11 5 1 15 20 1 9 18 36 11 14
split_gain=29738.6 15057.1 11877.8 7375.04 4981.55 4342.92 4216.39 3326.97 3121.91 2811.78 2178.2 2124.18 2119.4 2116.92 1915.12 1789.92 1684.08 1682.82 1636.96 1538.09 1463.34 1410.77 1403.11 1396.48 1985.31 1508.11 1562.32 1395.35 1329.62
threshold=0.57420374190401524 1.0000000180025095e-35 0.029965150357857892 1.0000000180025095e-35 -0.61378419183464705 1.0000000180025095e-35 1.0000000180025095e-35 1.0000000180025095e-35 1.0000000180025095e-35 1.0000000180025095e-35 1.0000000180025095e-35 1.0000000180025095e-35 1.0000000180025095e-35 -1.6457674360120988 1.0000000180025095e-35 0.32212691948899802 1.0000000180025095e-35 1.0000000180025095e-35 -0.095936742287013779 0.90358068048147755 -1.0805594284883109 0.21327074904817159 1.0000000180025095e-35 -1.0805594284883109 0.48307613679529726 1.0000000180025095e-35 1.0000000180025095e-35 0.094811311207794208 -0.43302182166508613
decision_type=2 2 2 2 2 2 2 2 2 2 2 2 2 2 2 2 2 2 2 2 2 2 2 2 2 2 2 2 2
left_child=1 2 6 16 15 -2 10 -3 14 -8 -1 -6 -9 -11 -7 21 -4 22 -15 -10 -17 -5 -14 24 -13 -25 -27 -19 -12
right_child=5 7 3 4 11 8 9 12 19 13 28 23 17 18 -16 20 -18 27 -20 -21 -22 -23 -24 25 -26 26 -28 -29 -30
leaf_value=0.09919931245590663 0.12126855520321042 0.12696405263550772 0.1098345833085541 0.082866320979538902 0.093303146665442246 0.095331460092033304 0.098453478216723025 0.11035609314716301 0.11264922132623301 0.040690645532717326 0.071229449592470129 0.078978838139585367 0.12183037812519133 0.061988097972315477 0.11104534048900906 0.099903493669610474 0.094327886544493963 0.069522490233739492 0.07627961111163177 0.099672551609326643 0.080464174948407907 0.066555069526886751 0.097513996207085188 0.093432094318038422 0.11224559560059082 0.07638126418052775 0.11882039846336002 0.09462136183105635 0.083686698918085445
leaf_weight=621.39754186570644 1695.9817380569875 572.79491018503904 1817.862993709743 798.52290867269039 7790.7790621593595 4024.7846082746983 274.12279701605439 1587.2955311872065 3808.3668656423688 320.2958126552403 1384.5265159234405 330.83726784959435 287.44582722708583 2042.4684842899442 960.71465335413814 476.41514447331429 1139.3041036240757 360.03292975202203 1319.0589502640069 1201.5641330182552 2068.9261258728802 1578.3090208210051 1360.1616157703102 826.56426405534148 391.89737957715988 2451.9585431739688 89.924916882067919 575.66298996284604 2247.9234981909394
leaf_count=5707 9976 3559 14013 10564 84159 40036 2902 13111 29800 5707 19899 4206 1646 31161 7171 5008 11340 4960 17936 11277 26269 23393 13214 9448 3582 31605 748 5924 27849
internal_value=0 0.0878911 0.0850973 0.0892975 0.0867348 0.106472 0.0749873 0.104366 0.103962 0.0675559 0.0818982 0.0902392 0.101262 0.0652555 0.0983596 0.0782754 0.10386 0.0956739 0.0675961 0.109537 0.0841027 0.072035 0.101756 0.0844045 0.0970175 0.0816982 0.0778826 0.0849639 0.0789386
internal_weight=0 32714.5 27971.1 19761.3 16804.1 11691.4 8209.79 4743.39 9995.43 3955.95 4253.85 11882 4170.6 3681.82 4985.5 4922.17 2957.17 2583.3 3361.53 5009.93 2545.34 2376.83 1647.61 4091.18 722.735 3368.45 2541.88 935.696 3632.45
internal_count=476170 377910 335496 224335 198982 98260 111161 42414 88284 57706 53455 133748 38855 54804 47207 65234 25353 25744 49097 41077 31277 33957 14860 49589 7788 41801 32353 10884 47748
shrinkage=0.01


Tree=4
num_leaves=30
num_cat=0
split_feature=14 10 7 68 2 14 20 20 9 9 20 6 14 11 7 14 5 1 5 6 11 1 0 5 5 31 5 15 2
split_gain=23457.2 8778.53 6552.15 6512.73 4954.86 4729.15 3791.21 3532.37 2984.96 2632.91 2278.63 1959.3 1695.02 1688.4 1664.92 1764.84 1473.68 1286.82 1333.43 1315.99 1279.74 1230.89 1169.98 1153.81 1109.03 1607.54 1105.78 1136.37 1091.12
threshold=-0.10210503371839678 1.0000000180025095e-35 1.0000000180025095e-35 1.0000000180025095e-35 1.0000000180025095e-35 1.8081302884232684 1.0000000180025095e-35 1.0000000180025095e-35 -0.21215001497012123 1.0000000180025095e-35 1.0000000180025095e-35 1.0000000180025095e-35 -0.60650792269976461 0.31625758561565859 1.0000000180025095e-35 -1.1522552203523226 0.33918037438023879 0.40089313268137428 0.33918037438023879 1.0000000180025095e-35 0.32212691948899802 -1.4509225687807323 1.0000000180025095e-35 -0.22521993172099997 1.0000000180025095e-35 1.0000000180025095e-35 1.0000000180025095e-35 0.2227624399150602 1.0000000180025095e-35
decision_type=2 2 2 2 2 2 2 2 2 2 2 2 2 2 2 2 2 2 2 2 2 2 2 2 2 2 2 2 2
left_child=1 3 5 -1 10 6 20 -3 26 13 -5 -12 -10 17 15 -9 -4 18 -8 -20 28 -17 -19 -13 -14 -26 -6 -28 -2
right_child=2 7 16 4 8 -7 9 14 12 -11 11 23 24 -15 -16 21 -18 22 19 -21 -22 -23 -24 -25 25 -27 27 -29 -30
leaf_value=0.095004943123237526 0.097386644243615483 0.10135360106318218 0.10597657885850265 0.090774494030613828 0.064413972764967145 0.10016092760994011 0.077092628568512733 0.061270479516890311 0.064674575424364625 0.088453477264042249 0.081902543789839313 0.077916652808483033 0.084160069584354652 0.087650454734098632 0.095380765434524922 0.10885783754501459 0.09324605739089746 0.075763254111217843 0.084755600377096882 0.055571369801652691 0.10480577614548596 0.081683292885447817 0.093816437730903035 0.066428060201506836 0.066815434812889277 0.14819925725484753 0.06244507738279112 0.045782540058594653 0.076995700789096594
leaf_weight=1246.7132835537195 780.6321672052145 1270.0027272552252 3155.2349383570254 1032.3551306836307 1456.7182262577116 3149.2279551550746 1857.6180951446295 419.66109383478761 2087.8314888849854 8607.375084836036 2369.9559130184352 1329.6609703376889 1119.1979077011347 1913.2063198871911 940.35136298462749 172.61057541146874 1277.4631635695696 793.08584736660123 199.63064590469003 683.5981126204133 1348.3124841600657 4854.3350669592619 655.83762195706367 2551.94324638322 850.95125629380345 24.983389724045992 688.4018707498908 1009.5186975337565 395.30712119117379
leaf_count=10812 5579 8835 19269 8329 19570 21415 20540 5672 27945 79170 25279 15167 12049 17939 7804 1218 9789 8922 1950 9274 7587 51715 5950 33350 11127 143 9810 16025 3936
internal_value=0 0.077337 0.0912891 0.0730712 0.0711881 0.0888929 0.086834 0.0861219 0.0653282 0.0848911 0.0770108 0.074738 0.0709731 0.0798668 0.0830931 0.0809717 0.102308 0.0763126 0.0722831 0.0621677 0.0981562 0.0826164 0.0839348 0.0703635 0.0775643 0.0691367 0.0580221 0.0525382 0.090532
internal_weight=0 23425.2 24816.5 15768.2 14521.5 20383.8 17234.6 7656.96 7237.6 14710.4 7283.92 6251.56 4082.96 6102.98 6386.96 5446.61 4432.7 4189.77 2740.85 883.229 2524.25 5026.95 1448.92 3881.6 1995.13 875.935 3154.64 1697.92 1175.94
internal_count=476170 264850 211320 189606 178794 182262 160847 75244 96669 143745 82125 73796 51264 64575 66409 58605 29058 46636 31764 11224 17102 52933 14872 48517 23319 11270 45405 25835 9515
shrinkage=0.01


Tree=5
num_leaves=30
num_cat=0
split_feature=14 68 11 68 17 14 20 1 3 10 2 11 5 4 1 20 36 7 5 15 1 5 55 0 5 14 10 12 14
split_gain=18454.2 7100.37 6575.99 5287 4290.81 3452.11 3303.67 2482.48 2435.62 2521.52 2330.06 2311.54 1642.32 1588.28 1508.51 1461.55 1413.1 1250.35 1235.57 1372.53 1211.33 1156.8 1429.87 1121.62 1206.4 960.448 945.006 930.516 1042.31
threshold=-0.10210503371839678 1.0000000180025095e-35 0.068624399519188597 1.0000000180025095e-35 1.0000000180025095e-35 0.81720723989012545 1.0000000180025095e-35 -1.4509225687807323 1.0000000180025095e-35 0.27293544278478316 1.0000000180025095e-35 0.10912810737355848 0.33918037438023879 1.0000000180025095e-35 1.0000000180025095e-35 1.0000000180025095e-35 1.0000000180025095e-35 1.0000000180025095e-35 1.0000000180025095e-35 0.051382924122550667 0.40089313268137428 -0.22521993172099997 1.0000000180025095e-35 1.0000000180025095e-35 -0.22521993172099997 -1.673172219197453 1.2617807573350852 -1.017275531809259 0.31037926764666113
decision_type=2 2 2 2 2 2 2 2 2 2 2 2 2 2 2 2 2 2 2 2 2 2 2 2 2 2 2 2 2
left_child=1 -1 10 -2 13 11 -4 -8 9 12 15 23 25 17 -7 -3 21 -5 -12 -20 -10 -17 -23 24 -6 -9 -26 -25 -29
right_child=3 2 6 4 5 14 7 8 20 -11 18 -13 -14 -15 -16 16 -18 -19 19 -21 -22 22 -24 27 26 -27 -28 28 -30
leaf_value=0.088819769811060781 0.096078884122970734 0.082837345681853386 0.08499745594248026 0.08725801998614964 0.073085376045829625 0.079835166875013575 0.096150686097182816 0.021329879012953312 0.075518364614869701 0.075407564539022087 0.062409135605558899 0.079301091527770831 0.058988312816988978 0.075919296633292166 0.089855283943035699 0.070675400327962143 0.10071667356705993 0.097123907017545932 0.072438842222115843 0.047915831620466948 0.091383593062118171 0.056725900197889867 0.10831373613372332 0.098737221521906268 0.058300523483383604 0.069736380114698446 0.12161761540429801 0.064459255467712029 0.082194374059936126
leaf_weight=2152.4396110251546 2921.3064226284623 562.51860385760665 2196.4589326158166 4416.4595981836319 1206.2693391703069 2838.8881246969104 403.50726824253798 41.428095385432243 1608.1215797699988 3749.0135708525777 2053.8666705824435 6720.525500908494 2618.2301404736936 900.51892510801554 3191.583989739418 1444.2185706980526 109.24629802256823 1811.4618853889406 264.3953671939671 1668.5986049808562 686.77651365101337 1610.4331217668951 55.582437939941883 169.17764997854829 1358.040338549763 3866.367277380079 23.988152675330639 626.66713965311646 703.27820938453078
leaf_count=16202 17475 4285 16220 33367 11821 22897 2987 677 15742 36937 25623 57192 32965 7546 21147 15776 880 9872 3220 24552 5660 20716 415 1182 16054 41993 125 6704 5938
internal_value=0 0.0714538 0.0698243 0.0833778 0.0818297 0.0790766 0.0736559 0.0717357 0.070952 0.0688717 0.0623424 0.0756945 0.065117 0.0883327 0.0851382 0.0679653 0.0653668 0.0901276 0.0570085 0.0512701 0.0802662 0.0641252 0.058447 0.0697644 0.0657778 0.0692232 0.0593995 0.0766476 0.0738376
internal_weight=0 25091.2 22938.8 26888.2 23966.9 16838.4 15169.9 12973.4 12569.9 10275 7768.86 10807.9 6526.03 7128.44 6030.47 3782 3219.48 6227.92 3986.86 1932.99 2294.9 3110.23 1666.02 4087.42 2588.3 3907.8 1382.03 1499.12 1329.95
internal_count=476170 264850 248648 211320 193845 143060 153181 136961 133974 112572 95467 99016 75635 50785 44044 42072 37787 43239 53395 27772 21402 36907 21131 41824 28000 42670 16179 13824 12642
shrinkage=0.01


Tree=6
num_leaves=30
num_cat=0
split_feature=14 7 11 1 3 14 20 14 34 20 33 1 42 11 19 11 17 5 5 15 0 15 9 5 12 5 10 15 11
split_gain=14918.9 8517.58 6566.83 4388.16 3252.73 2780.07 2430.66 2419.68 2005.12 1879.99 1741.59 1735.51 1713.76 1607.58 1470.7 1282.57 1266.29 1170.82 1138.15 1102.75 1004 980.571 963.333 940.794 920.482 911.784 877.703 867.982 832.114
threshold=0.57420374190401524 1.0000000180025095e-35 0.029965150357857892 -1.4509225687807323 1.0000000180025095e-35 -0.86156416841173222 1.0000000180025095e-35 -0.77910110195888971 1.0000000180025095e-35 1.0000000180025095e-35 1.0000000180025095e-35 1.0000000180025095e-35 1.0000000180025095e-35 -0.082019045339932747 1.0000000180025095e-35 0.43575260597047066 1.0000000180025095e-35 -0.50742008477161926 0.90358068048147755 0.21862122840945963 1.0000000180025095e-35 0.2050908692626687 -1.9502153943836673 0.33918037438023879 -2.219171967209546 1.0000000180025095e-35 2.7450487291605383 0.25262196225143835 0.084060190146656444
decision_type=2 2 2 2 2 2 2 2 2 2 2 2 2 2 2 2 2 2 2 2 2 2 2 2 2 2 2 2 2
left_child=1 2 5 -4 7 -1 -2 19 10 -3 22 17 14 -10 15 18 -11 -8 20 26 -9 -6 -7 -16 -24 -13 -5 -17 -14
right_child=6 9 3 4 21 8 11 12 13 16 -12 25 28 -15 23 27 -18 -19 -20 -21 -22 -23 24 -25 -26 -27 -28 -29 -30
leaf_value=0.047764126786442741 0.089957012376420245 0.091016102188818129 0.087512416197482623 0.065221114339747241 0.08129327015237886 0.088572744716104379 0.080538364349730968 0.05986443375657971 0.051473117999996654 0.083304012510539135 0.054408905900183664 0.085792357572431741 0.043933437233118225 0.065921108241060344 0.075961407610948634 0.075243487573881482 0.072828678192462679 0.071626404040156869 0.050934926381347945 0.055588937279513653 0.07047261935785068 0.072191916576953979 0.082617016023334405 0.067512426844351825 0.06628375263468847 0.078268724195249564 0.11543796911353296 0.06516251650626001 0.084754024457341717
leaf_weight=1594.3733114674687 2219.173306375742 1163.2169388495386 1280.7933149598539 1481.0803842507303 1893.6973447538912 242.45610615983605 2331.3595594093204 2398.9775771982968 2290.4399295784533 1877.7977695763111 987.69388145580888 3436.0533924587071 53.26064183562994 1160.2211024388671 2617.6785673983395 1504.2804972417653 2993.773869395256 4009.3265145607293 837.13188560307026 2494.9752096123993 1420.4406010955572 3157.6409777142107 385.38896735012531 2654.2185611128807 3295.6107562035322 3032.2776623703539 35.643177773803473 1976.0494024939835 800.29141706600785
leaf_count=20942 9976 5586 7962 15487 14062 1926 15667 24939 27921 12309 11531 20090 632 12060 21565 12368 24519 31540 9788 28672 12976 26968 3062 24995 33719 20987 189 18199 5533
internal_value=0 0.0686321 0.0667181 0.0694908 0.0685012 0.0598656 0.0802949 0.0665379 0.062173 0.0795939 0.0662777 0.078621 0.0684678 0.056331 0.0675932 0.0649274 0.0768665 0.0749032 0.0614951 0.0596768 0.0638096 0.0756039 0.0692655 0.0717076 0.0679938 0.0822654 0.0664012 0.0695197 0.0822069
internal_weight=0 40597.1 34562.3 24606.2 23325.4 9956.18 15028.2 18274 8361.81 6034.79 4911.15 12809 14262.3 3450.66 13408.8 8136.88 4871.57 6340.69 4656.55 4011.7 3819.42 5051.34 3923.46 5271.9 3681 6468.33 1516.72 3480.33 853.552
internal_count=476170 377910 335496 224335 216373 111161 98260 175343 90219 42414 50238 88284 130995 39981 124830 78270 36828 47207 47703 44348 37915 41030 38707 46560 36781 41077 15676 30567 6165
shrinkage=0.01


Tree=7
num_leaves=30
num_cat=0
split_feature=14 7 10 20 6 5 1 14 14 0 34 33 40 2 9 9 1 36 2 33 34 1 68 15 4 1 11 5 15
split_gain=12609.6 5153.54 4195.77 4058.69 3282.06 2703.06 2034.06 1913.29 1432.4 1413.55 1302.78 1479.69 1262.38 1176.9 1378.52 1169.84 1152.05 1120.86 1107.12 1069.62 974.901 898.819 886.63 882.394 876.671 987.063 866.097 841.887 797.895
threshold=-0.10210503371839678 1.0000000180025095e-35 -0.22148721449036771 1.0000000180025095e-35 1.0000000180025095e-35 1.0000000180025095e-35 -1.4509225687807323 0.6392837217300088 -1.1522552203523226 -0.70593428417481552 1.0000000180025095e-35 1.0000000180025095e-35 1.0000000180025095e-35 1.0000000180025095e-35 0.83068921267800666 1.0000000180025095e-35 0.77125627297379562 1.0000000180025095e-35 1.0000000180025095e-35 1.0000000180025095e-35 1.0000000180025095e-35 1.0000000180025095e-35 1.0000000180025095e-35 0.2227624399150602 1.0000000180025095e-35 0.77125627297379562 -0.13355960407706358 1.4679809865827163 -0.18490860166370243
decision_type=2 2 2 2 2 2 2 2 2 2 2 2 2 2 2 2 2 2 2 2 2 2 2 2 2 2 2 2 2
left_child=1 2 5 18 9 10 -4 15 -8 -5 11 -1 20 24 23 19 -9 -10 -2 -6 -3 -11 -20 -15 25 -7 -12 -17 -22
right_child=3 12 6 4 7 13 8 16 17 21 26 -13 -14 14 -16 27 -18 -19 22 -21 28 -23 -24 -25 -26 -27 -28 -29 -30
leaf_value=0.067148439911683663 0.082353327222843151 0.07298617851230807 0.081358542922399094 0.068415610122248546 0.060694863166991575 0.056315328624888659 0.051039609971990335 0.067876573494224837 0.064159816213230109 0.07292594666048853 0.04657023261395276 0.053303186948177296 0.082480861983898882 0.051557577540536921 0.059260554238369387 0.067723548926043695 0.076495582094163975 0.08117304581945875 0.089423951247463496 0.040316902564536239 0.090943522966590681 0.079946539056334379 0.066309867258593502 0.039483997755867487 0.048796999160594552 0.072913275777956407 0.058852649126967103 0.049468939072730964 0.058048569545208387
leaf_weight=3484.1437702961266 3648.9598604813218 2177.7526611834764 705.61220341175795 3170.994750417769 3235.95072837919 1562.5677832774818 809.62928297743201 5212.7153784371912 8603.5932506173849 3671.6598312668502 794.72569396719337 991.60361656174064 946.59423677995801 986.28109826147556 790.34801279380918 4460.3858883902431 2207.5518591180444 405.48901693895459 205.61876025050879 279.85479928925633 80.578911013901234 3622.9829980321229 860.30436012893915 1567.1807606443763 1031.4123722240329 464.88853195309639 2068.1857858337462 267.8132658675313 868.45629138499498
leaf_count=30981 15953 15182 3944 22887 30236 16168 8926 38008 75160 23342 9596 10542 5370 11871 8537 35048 13456 2639 839 3244 442 19766 5948 21173 11741 4083 20756 2593 7739
internal_value=0 0.0619548 0.0602076 0.0711947 0.0696539 0.0565685 0.0649591 0.066757 0.0637806 0.0739897 0.0607113 0.064081 0.0723631 0.0518202 0.0477196 0.0634413 0.0704408 0.0649256 0.0797343 0.0590728 0.0693001 0.0764128 0.0707686 0.0441474 0.0563028 0.0601212 0.0554431 0.0666896 0.0608416
internal_weight=0 28339 24265.7 30844.8 26129.9 13741.3 10524.3 15664.3 9818.71 10465.6 7338.66 4475.75 4073.38 6402.68 3343.81 8244 7420.27 9009.08 4714.88 3515.81 3126.79 7294.64 1065.92 2553.46 3058.87 2027.46 2862.91 4728.2 949.035
internal_count=476170 264850 236117 211320 188580 145448 90669 122585 86725 65995 71875 41523 28733 73573 41581 71121 51464 77799 22740 33480 23363 43108 6787 33044 31992 20251 30352 37641 8181
shrinkage=0.01


Tree=8
num_leaves=30
num_cat=0
split_feature=14 11 20 6 34 67 68 3 20 5 14 0 20 33 5 15 20 9 14 1 11 16 9 33 7 1 3 40 1
split_gain=10553.3 5400.93 3229.68 2908.26 2370.63 2006.97 1991.34 1902.87 1714.87 1562.28 1359.86 1330.47 1195.53 1148.16 1107.21 1001.37 989.599 968.214 961.363 941.888 906.731 906.648 868.537 865.622 843.898 819.687 765.033 758.094 709.328
threshold=0.096661754207146997 0.076380919450049919 1.0000000180025095e-35 1.0000000180025095e-35 1.0000000180025095e-35 1.0000000180025095e-35 1.0000000180025095e-35 1.0000000180025095e-35 1.0000000180025095e-35 0.33918037438023879 0.6392837217300088 -0.70593428417481552 1.0000000180025095e-35 1.0000000180025095e-35 -0.22521993172099997 0.2227624399150602 1.0000000180025095e-35 0.48307613679529726 -0.81836732698112891 0.77125627297379562 0.4162830139086946 -1.6457674360120988 -1.9502153943836673 1.0000000180025095e-35 1.0000000180025095e-35 1.0000000180025095e-35 1.0000000180025095e-35 1.0000000180025095e-35 1.5119825535586384
decision_type=2 2 2 2 2 2 2 2 2 2 2 2 2 2 2 2 2 2 2 2 2 2 2 2 2 2 2 2 2
left_child=1 4 26 11 6 7 -1 9 -5 20 23 27 -8 21 -6 -11 -13 -17 -19 -12 -4 24 -23 -10 -14 -18 -3 -2 -9
right_child=3 2 5 8 14 -7 12 28 10 15 19 16 13 -15 -16 17 25 18 -20 -21 -22 22 -24 -25 -26 -27 -28 -29 -30
leaf_value=0.072451040863313124 0.062021741251194647 0.067684035144009821 0.057044123713710225 0.07197275372314961 0.053462092897588846 0.071147370645336994 0.066377044000956509 0.064306582148010424 0.060433281022636794 0.058687156366633325 0.063412321535577437 0.080951938898090742 0.031856339817217021 0.044819855713985647 0.043896209342175405 0.04471135613382006 0.067998214189047154 0.040612055607792484 0.058715402706773459 0.07096557134491023 0.063515839220908685 0.0768833894115237 0.056141138536346703 0.046088620877528512 0.074863269518952183 0.074967905846122701 0.078639306277795015 0.072063001434629334 0.081531175891545113
leaf_weight=749.30245437473059 2136.6123118102551 2928.0208583474159 4628.9653528109193 2483.5513890683651 2109.0252374261618 1473.6900775246322 822.05318848416209 3309.215612296015 5478.8258745968342 2185.7254276387393 5522.2518711350858 1337.1308171823621 254.98598311468959 1200.2638074234128 2838.4626250714064 1726.720111772418 3324.6920572593808 365.82429286465049 1480.445538200438 2354.9923666343093 4066.9854503385723 214.24416685849428 3495.836202390492 455.66307887807488 55.569426815956831 3426.4878947362304 814.81805908679962 1160.1262568682432 257.70162077620625
leaf_count=4790 14516 17858 41583 11615 20911 9149 5894 25022 43512 19645 38008 4576 3403 13664 32884 18748 19456 4216 12988 13456 31447 1595 34212 4396 382 16777 3661 6321 1485
internal_value=0 0.0587677 0.0615607 0.0670319 0.0532392 0.0599272 0.0570744 0.0590097 0.0643226 0.0573955 0.062947 0.0709098 0.0551678 0.0534028 0.047974 0.0533556 0.0730923 0.0500941 0.0551284 0.0656705 0.0600709 0.055965 0.0573389 0.0593319 0.0395518 0.0715356 0.070069 0.0655553 0.065551
internal_weight=0 34977.9 23238.1 27680.3 11739.7 19495.3 6792.26 18021.6 16295.3 14454.7 13811.7 11385 6042.95 5220.9 4947.49 5758.72 8088.31 3572.99 1846.27 7877.24 8695.95 4020.64 3710.08 5934.49 310.555 6751.18 3742.84 3296.74 3566.92
internal_count=476170 303537 185802 172633 117735 164283 63940 155134 110987 128627 99372 61646 59150 53256 53795 55597 40809 35952 17204 51464 73030 39592 35807 47908 3785 36233 21519 20837 26507
shrinkage=0.01


Tree=9
num_leaves=30
num_cat=0
split_feature=14 20 11 68 3 34 7 1 14 5 5 9 34 36 11 67 5 18 1 42 11 15 0 5 55 14 1 9 17
split_gain=9066.48 4122.15 3063.55 2995.98 2533.24 1795.47 1669.13 1412.28 1344.93 1281.02 1260.72 1225.93 1161.7 1112.47 1042.07 980.549 916.626 900.958 882.989 918.794 798.799 771.177 689.56 805.993 688.22 676.298 664.672 660.162 654.985
threshold=-0.10210503371839678 1.0000000180025095e-35 0.084060190146656444 1.0000000180025095e-35 1.0000000180025095e-35 1.0000000180025095e-35 1.0000000180025095e-35 0.40089313268137428 -0.66491506239113729 1.185780833532097 0.33918037438023879 -0.90737616673553945 1.0000000180025095e-35 1.0000000180025095e-35 0.28688970930966384 1.0000000180025095e-35 -0.22521993172099997 1.0000000180025095e-35 -1.4509225687807323 1.0000000180025095e-35 0.89483537399007884 0.25262196225143835 1.3087560702388132 0.33918037438023879 1.0000000180025095e-35 -0.7712984348465215 1.8823456938510599 -1.6026023185009579 1.0000000180025095e-35
decision_type=2 2 2 2 2 2 2 2 2 2 2 2 2 2 2 2 2 2 2 2 2 2 2 2 2 2 2 2 2
left_child=1 12 5 -2 10 8 9 11 -3 18 13 20 -1 17 -12 24 -7 -5 -4 21 -6 -20 -18 -24 -10 -23 -19 -14 -9
right_child=3 2 6 4 7 16 -8 28 15 -11 14 -13 27 -15 -16 -17 22 26 19 -21 -22 25 23 -25 -26 -27 -28 -29 -30
leaf_value=0.066259290507818536 0.070474310922129815 0.045755364999687187 0.068921248864350984 0.065352833819102923 0.052087614424703957 0.048873496075243529 0.063119344073199912 0.074120034506382562 0.053157245882123824 0.046605082249269465 0.051211047516031769 0.064041681598922789 0.037001735212882435 0.077396536390245421 0.058836455820779683 0.071454418353549279 0.037493238128551036 0.057913124353436263 0.056891997409341588 0.067557526575730831 0.074392198860937536 0.045116691533567614 0.088602695662054171 0.041928319290807162 0.076098706065369268 0.053525602490297829 0.071433328993226491 0.058105142512373746 0.066169122243802669
leaf_weight=3456.1096110083163 3829.9870171770453 2012.7291184514761 470.39857292547822 2596.6684821173549 1507.2498589120805 1680.774760581553 2543.7603280767798 1621.603432007134 2891.6053897589445 1866.6522756554186 3199.0554108284414 6429.4901844635606 165.90867871418595 392.08478158712387 4074.964228309691 369.29220720380545 2035.5561951287091 7538.694867528975 5941.0758594833314 552.82547184452415 179.70846148580313 1211.334152624011 58.559005085378885 100.48294138535857 136.95649979636073 4545.3233787678182 382.04123109951615 1391.3768085613847 2869.4873141609132
leaf_count=19272 17475 21227 2725 15326 11302 16666 16267 6748 26973 18442 25504 37589 1681 1723 26410 2091 24382 51108 49158 3365 839 12118 383 1159 936 38121 1980 9884 15316
internal_value=0 0.0547149 0.0531373 0.0621334 0.0610959 0.0485119 0.0556445 0.0645406 0.0522333 0.054341 0.0587075 0.0620509 0.063028 0.0608576 0.0554829 0.0560706 0.0433162 0.060241 0.0554762 0.0549599 0.0544637 0.0543646 0.0390601 0.0591138 0.0541947 0.0517562 0.0585652 0.0558568 0.06904
internal_weight=0 31430.7 26417.3 34621 30791 9285.96 17131.4 12607.5 5410.58 14587.6 18183.5 8116.45 5013.4 10909.5 7274.02 3397.85 3875.37 10517.4 12721 12250.6 1686.96 11697.7 2194.6 159.042 3028.56 5756.66 7920.74 1557.29 4491.09
internal_count=476170 264850 234013 211320 193845 93817 140196 71794 51227 123929 122051 49730 30837 70137 51914 30000 42590 68414 105487 102762 12141 99397 25924 1542 27909 50239 53088 11565 22064
shrinkage=0.01


Tree=10
num_leaves=30
num_cat=0
split_feature=2 4 9 20 1 10 68 1 14 14 7 10 1 58 6 68 5 9 14 5 15 40 5 9 42 161 36 13 19
split_gain=8080.01 5260.34 3786.58 3617.52 3172.08 2049.3 1712.45 1578.13 1355.66 1322.13 1302.35 1125.54 1120.58 1030.42 951.707 905.18 790.383 776.931 746.072 736.92 1001.9 728.595 1053.59 720.393 696.195 654.044 647.657 642.895 584.415
threshold=1.0000000180025095e-35 1.0000000180025095e-35 -0.21215001497012123 1.0000000180025095e-35 0.40089313268137428 1.0000000180025095e-35 1.0000000180025095e-35 -1.0805594284883109 -0.46625470683064357 -0.81836732698112891 1.0000000180025095e-35 -0.46869854312794318 -1.0805594284883109 1.0000000180025095e-35 1.0000000180025095e-35 1.0000000180025095e-35 0.90358068048147755 -0.90737616673553945 2.3864993970154162 -0.50742008477161926 0.35055763750164515 1.0000000180025095e-35 0.33918037438023879 -1.2549892426182485 1.0000000180025095e-35 1.0000000180025095e-35 1.0000000180025095e-35 -1.0973017957572513 1.0000000180025095e-35
decision_type=2 2 2 2 2 2 2 2 2 2 2 2 2 2 2 2 2 2 2 2 2 2 2 2 2 2 2 2 2
left_child=1 3 6 -1 5 10 -2 -3 11 -9 19 -4 -10 21 -6 -13 17 -11 24 20 -5 22 25 -21 -7 -8 28 -17 -14
right_child=2 7 8 4 14 18 13 9 12 16 -12 15 26 -15 -16 27 -18 -19 -20 23 -22 -23 -24 -25 -26 -27 -28 -29 -30
leaf_value=0.067019872675812234 0.061002081821465756 0.060679137286578193 0.043016679038566333 0.051233027238043127 0.066570005733852466 0.057914106978195837 0.044227183416075698 0.042125757916126105 0.063585300101384676 0.041461770353871552 0.060618906927010344 0.065059360190912324 0.052157467725372053 0.063714813362269668 0.060204240101362043 0.031905816829412896 0.046935669113865694 0.054735075617241898 0.067804481689596449 0.042942970238796258 0.06237924467450924 0.050238160404778028 0.035867469804217657 0.051272052491687016 0.074614608865099477 0.092673834521555684 0.06855924959815729 0.051610836229959565 0.05908421441582376
leaf_weight=5595.4976549819112 588.03261367231607 1801.5946301929653 1828.4579867869616 2426.2779992446303 4056.0907769203186 6546.6688901484013 3406.0653297826648 1582.6821279712021 1490.2522134073079 474.98896007612348 1871.517990745604 497.39421250671148 6032.278184376657 237.32910762727261 5578.8160370886326 173.31802681460977 2258.2892293781042 6160.0291635580361 999.1924044713378 1401.0897170342505 1207.9215276539326 1034.6441093422472 2290.970116853714 4011.7795562408864 259.51056225597858 28.096158362925053 299.11408083513379 3704.6242592409253 1526.2176585644484
leaf_count=21869 3517 10957 18274 18480 19492 40452 31891 14620 8753 4218 9830 2682 43124 1396 34407 1827 17705 40888 4124 12643 6937 8726 25316 30886 1123 120 1388 30432 10093
internal_value=0 0.0576433 0.0504045 0.0596716 0.0582218 0.0558226 0.0446118 0.0520338 0.0532298 0.050547 0.0530255 0.0496056 0.0556351 0.0432344 0.0628841 0.0523591 0.0520456 0.0537849 0.0597355 0.0514547 0.0549378 0.0425154 0.0411197 0.0491161 0.0585509 0.0446235 0.0541272 0.0507302 0.0535561
internal_weight=0 46231.9 23136.8 33954.4 28358.9 18724 7585.14 12277.6 15551.7 10476 10918.6 6203.79 9347.86 6997.1 9634.91 4375.34 8893.31 6635.02 7805.37 9047.07 3634.2 6759.78 5725.13 5412.87 6806.18 3434.16 7857.61 3877.94 7558.5
internal_count=476170 288631 187539 200243 178374 124475 70966 88388 116573 77431 78776 53215 63358 67449 53899 34941 62811 45106 45699 68946 25417 66053 57327 43529 41575 32011 54605 32259 53217
shrinkage=0.01


Tree=11
num_leaves=30
num_cat=0
split_feature=14 7 11 1 14 14 40 20 20 34 11 14 1 33 15 2 11 5 12 17 5 18 5 5 42 19 9 16 1
split_gain=7178.15 4511.67 3456.01 2332.69 1684.76 1631.95 1289.67 1176.9 1028.58 1018.88 1062.46 996.381 981.409 962.508 916.007 862.227 806.98 728.363 754.725 716.949 706.596 683.231 687.916 656.483 612.096 581.451 574.751 574.652 570.85
threshold=0.57420374190401524 1.0000000180025095e-35 0.029965150357857892 -1.4509225687807323 -0.59654475214087055 -0.86156416841173222 1.0000000180025095e-35 1.0000000180025095e-35 1.0000000180025095e-35 1.0000000180025095e-35 -0.082019045339932747 2.3864993970154162 0.77125627297379562 1.0000000180025095e-35 0.21862122840945963 1.0000000180025095e-35 1.1287691745989539 -1.3540205439234771 -2.219171967209546 1.0000000180025095e-35 -0.50742008477161926 1.0000000180025095e-35 0.33918037438023879 0.90358068048147755 1.0000000180025095e-35 1.0000000180025095e-35 -1.9502153943836673 -3.5171613320430519 1.0000000180025095e-35
decision_type=2 2 2 2 2 2 2 2 2 2 2 2 2 2 2 2 2 2 2 2 2 2 2 2 2 2 2 2 2
left_child=1 2 5 -4 14 -1 15 -2 -3 13 -11 12 17 26 16 24 -5 -9 -19 -10 -16 -17 -23 -14 28 -20 -7 -22 -6
right_child=7 8 3 4 6 9 -8 11 19 10 -12 -13 23 -15 20 21 -18 18 25 -21 27 22 -24 -25 -26 -27 -28 -29 -30
leaf_value=0.036277727850713169 0.063083518198416261 0.06447118261925347 0.062125138073348629 0.049260880520239428 0.049279955394832674 0.063556098076351944 0.056519504167879452 0.060238200686816547 0.059619010099779317 0.03887926577607053 0.049323960624114392 0.061265585349549741 0.061933330874478207 0.040834392690144876 0.048721876935639258 0.053238809738368337 0.067672512771025456 0.068500658346667839 0.049354762283787164 0.052766130221411266 0.027012254822660259 0.047977342686413814 0.039389291620593847 0.052890316563573049 0.060601787195797528 0.054713276351413813 0.049773638267559435 0.042486854454335782 0.053982819911605431
leaf_weight=1977.7797963544726 3010.7839277461171 1566.0981200262904 1719.6200284846127 2945.4439762607217 5693.5221881642938 323.05071764066815 4363.5631400756538 1353.4281464442611 2499.1217011734843 2862.3396481908858 1476.1874641254544 3264.9557243138552 2802.7913574874401 1243.4466464333236 2058.2177725806832 1458.9430143125355 258.98714064061642 279.31223874539137 4466.720248952508 3923.3382960632443 258.66752862930298 3034.770374327898 1346.5634317956865 1125.0083772242069 778.97945915907621 3704.3930884301662 4772.6184791475534 3320.7898141890764 4721.4328680485487
leaf_count=20942 9976 5586 7962 23038 39480 1926 25974 6389 12309 27921 12060 13249 12408 11531 16142 10223 1391 1241 27599 24519 2846 22612 11911 6416 4039 20982 36781 29260 29457
internal_value=0 0.0502837 0.0490444 0.0507958 0.0501516 0.0446215 0.0516689 0.057321 0.0572047 0.046167 0.0424331 0.0563002 0.0551196 0.0487225 0.0464797 0.0504264 0.0507489 0.0534274 0.0523366 0.0554327 0.0440531 0.0473116 0.0453379 0.0593432 0.0520514 0.0517841 0.0506474 0.0413686 0.0514119
internal_weight=0 52603.5 44614.9 31959.5 30239.9 12655.4 21397.8 20007.4 7988.56 10677.6 4338.53 16996.6 13731.7 6339.12 8842.11 17034.2 3204.43 9803.85 8450.43 6422.46 5637.68 5840.28 4381.33 3927.8 11193.9 8171.11 5095.67 3579.46 10415
internal_count=476170 377910 335496 224335 216373 111161 143696 98260 42414 90219 39981 88284 75035 50238 72677 117722 24429 56211 49822 36828 48248 44746 34523 18824 72976 48581 38707 32106 68937
shrinkage=0.01


Tree=12
num_leaves=30
num_cat=0
split_feature=2 4 9 1 1 6 68 1 7 5 14 11 58 13 11 9 20 134 5 14 5 1 18 10 9 10 11 5 40
split_gain=6340.86 4193.02 3068.09 2857.66 2006.58 1443.16 1413.71 1282.78 1219.12 1106.37 1038.85 909.242 836.76 815.028 770.085 751.426 714.48 838.424 664.678 662.747 656.188 632.242 731.524 670.879 629.116 616.258 597.031 594.159 585.356
threshold=1.0000000180025095e-35 1.0000000180025095e-35 -0.21215001497012123 1.0000000180025095e-35 -1.4509225687807323 1.0000000180025095e-35 1.0000000180025095e-35 -1.0805594284883109 1.0000000180025095e-35 0.33918037438023879 -0.81836732698112891 0.25973825627728392 1.0000000180025095e-35 -1.0932349448382543 0.50678086279973666 -0.21215001497012123 1.0000000180025095e-35 1.0000000180025095e-35 1.4679809865827163 -0.94798541240284528 0.90358068048147755 -1.0805594284883109 1.0000000180025095e-35 0.27293544278478316 -0.90737616673553945 -0.46869854312794318 0.038807332262614673 0.90358068048147755 1.0000000180025095e-35
decision_type=2 2 2 2 2 2 2 2 2 2 2 2 2 2 2 2 2 2 2 2 2 2 2 2 2 2 2 2 2
left_child=1 3 6 4 -1 -6 -2 -3 13 16 -9 15 28 -5 18 27 -4 19 -15 26 24 -21 -23 -24 -12 -11 -18 -7 -8
right_child=2 7 9 8 5 11 12 10 -10 25 20 -13 -14 14 -16 -17 17 -19 -20 21 -22 22 23 -25 -26 -27 -28 -29 -30
leaf_value=0.063245258013702441 0.054619484934062948 0.054198424619405515 0.055386473806111169 0.035575891891181051 0.053054211619090935 0.043109943925764289 0.037345630687237091 0.038273195717212924 0.061342710096203651 0.038762805707661677 0.037570419027911812 0.050015687058185362 0.056771834537798216 0.054074097022979127 0.058010747241552495 0.049064104150129274 0.028014416285071158 0.0025289033828541124 0.043828276799200774 0.055523616286065954 0.042268154993155574 0.055409885271096457 0.044548023970920995 0.052269088937976139 0.049066212367532218 0.04623077070022074 0.045380325905739899 0.031595801696909155 0.045186108178083426
leaf_weight=1182.6818087473512 644.20398094505072 1977.4333054572344 1825.6828485652804 216.01639544218779 7790.8570445924997 2244.9968948289752 6164.7919804863632 1704.2071840390563 3629.5241731405258 1507.1489393264055 512.28604452311993 5742.1149788275361 261.23011967539787 7748.7662240117788 5636.0283460617065 1818.6380370780826 245.14052978157997 39.414443850517273 689.5071978494525 1558.148730315268 2452.2141782343388 1226.6813065856695 3771.763860296458 1603.8989616632462 6730.1890462264419 4141.1027405820787 1028.8616911359131 559.94918621331453 1126.162932574749
leaf_count=4065 3517 10957 9276 1836 41259 17122 57327 14620 12690 13381 4218 34202 1396 42137 24760 12172 2644 479 4802 9244 17705 7499 27308 9358 40888 29182 8202 5198 8726
internal_value=0 0.051566 0.0454227 0.0532902 0.0506243 0.0498022 0.0403997 0.0467633 0.0561672 0.0478519 0.0454735 0.0473581 0.0391867 0.0548527 0.0551486 0.0440575 0.0496583 0.0485545 0.0532369 0.0487467 0.0467392 0.049794 0.0484418 0.0468517 0.0482531 0.0442381 0.0420388 0.0408114 0.0385567
internal_weight=0 50635.4 25144.2 37259.1 19339.2 18156.6 8196.39 13376.3 17919.8 16947.8 11398.9 10365.7 7552.19 14290.3 14074.3 4623.58 11299.6 9473.91 8438.27 9434.5 9694.69 8160.49 6602.34 5375.66 7242.48 5648.25 1274 2804.95 7290.95
internal_count=476170 288631 187539 200243 114018 109953 70966 88388 86225 116573 77431 68694 67449 73535 71699 34492 74010 64734 46939 64255 62811 53409 44165 36666 45106 42563 10846 22320 66053
shrinkage=0.01


Tree=13
num_leaves=30
num_cat=0
split_feature=14 20 11 6 12 14 5 7 34 14 1 5 0 1 1 40 11 16 68 15 5 36 9 33 9 35 13 7 34
split_gain=5824.6 3876.49 2991.3 1782.08 1290.87 1128.69 993.095 978.929 949.456 829.699 746.795 760.506 717.625 702.766 866.116 671.789 689.037 648.201 647.015 604.693 752.792 586.187 585.876 578.677 540.142 510.53 584.956 509.905 503.906
threshold=0.57420374190401524 1.0000000180025095e-35 0.029965150357857892 1.0000000180025095e-35 -2.219171967209546 -0.75325804683540143 0.33918037438023879 1.0000000180025095e-35 1.0000000180025095e-35 3.179743113210288 -1.0805594284883109 0.33918037438023879 0.30141089303199875 -1.4509225687807323 0.40089313268137428 1.0000000180025095e-35 0.47329443679173572 -1.3005269109743407 1.0000000180025095e-35 0.21862122840945963 0.62138052743085814 1.0000000180025095e-35 0.48307613679529726 1.0000000180025095e-35 -1.2549892426182485 1.0000000180025095e-35 -1.1013706848226856 1.0000000180025095e-35 1.0000000180025095e-35
decision_type=2 2 2 2 2 2 2 2 2 2 2 2 2 2 2 2 2 2 2 2 2 2 2 2 2 2 2 2 2
left_child=1 8 4 15 -3 19 12 9 27 13 22 21 17 -2 24 16 -4 -6 -19 -5 -21 -12 -7 28 -15 26 -8 -1 -20
right_child=7 2 3 5 6 10 25 -9 -10 -11 11 -13 -14 14 -16 -17 -18 18 23 20 -22 -23 -24 -25 -26 -27 -28 -29 -30
leaf_value=0.052058527335783714 0.063343175990415224 0.050619865127867945 0.045578371451933233 0.044087221335525881 0.028484962824180081 0.045029443229349549 0.0030962520027052985 0.055708119554745722 0.046338239838870011 0.056911866168304161 0.045679468960445557 0.041658144925264137 0.047706465257315173 0.040725528551200894 0.052175927586875066 0.053355124030841375 0.050881073913492995 0.054632321391344663 0.044505128713538546 0.040043624148456455 0.028411333667843916 0.058128900068967544 0.054103799953002567 0.03107723932708106 0.048264879312051319 0.055123521813086017 0.035296120066578486 0.059156998487409657 0.038055108128202092
leaf_weight=5263.7779140770435 368.26065844297409 1094.1123579032719 6342.2187043353915 1744.1448778286576 457.14435319602489 1330.4336417168379 57.191764838993549 4392.245571129024 2665.0116959288716 1771.8709503561258 7921.0395790189505 6252.8417264893651 1473.3825004920363 1081.4486719742417 6381.9648335874081 2553.4128801524639 3993.410062007606 321.85759462416172 2378.7516307160258 1820.5568946748972 801.1784937158227 397.17804894596338 1529.4020160213113 636.23762344568968 7833.0730982273817 128.10778979584575 4168.3715842477977 1252.7994492575526 2467.8079770132899
leaf_count=24343 958 6949 41129 13188 4712 8933 789 15377 15567 6078 50940 45696 10206 6803 27941 11954 21700 1638 17436 14689 8061 1827 8076 5946 41103 876 38418 3691 21146
internal_value=0 0.0454148 0.0442732 0.0458143 0.0402184 0.0440713 0.039277 0.0514887 0.0513667 0.0504259 0.0452101 0.0442932 0.0414272 0.0496923 0.0493636 0.0487619 0.0476272 0.0399498 0.0408527 0.0395244 0.0364889 0.0462739 0.0498823 0.0400438 0.0473503 0.0354566 0.0348603 0.0534232 0.0412209
internal_weight=0 57050.4 47868.8 34685.8 13183 21796.8 12088.9 21828.9 9181.59 17436.6 17430.9 14571.1 7735.18 15664.7 15296.5 12889 10335.6 6261.8 5804.65 4365.88 2621.74 8318.22 2859.84 5482.8 8914.52 4353.67 4225.56 6516.58 4846.56
internal_count=476170 377910 334309 226193 108116 151410 101167 98260 43601 82883 115472 98463 61084 76805 75847 74783 62829 50878 46166 35938 22750 52767 17009 44528 47906 40083 39207 28034 38582
shrinkage=0.01


Tree=14
num_leaves=30
num_cat=0
split_feature=14 68 10 5 20 6 18 9 14 1 11 0 15 5 0 15 20 11 11 5 11 99 0 1 16 15 36 1 1
split_gain=5300.44 2684.16 2426.19 1855.89 1851.94 1512.03 1173.28 912.451 838.707 754.269 708.485 695.957 670.459 642.998 603.963 826.13 603.556 564.563 556.664 567.849 659.049 555.538 530.788 531.966 514.08 619.592 512.888 505.799 559.779
threshold=-0.10210503371839678 1.0000000180025095e-35 0.27293544278478316 1.0000000180025095e-35 1.0000000180025095e-35 1.0000000180025095e-35 1.0000000180025095e-35 1.0000000180025095e-35 -0.52116496816918434 0.40089313268137428 -0.082019045339932747 -0.70593428417481552 0.071341873162213118 1.4679809865827163 1.3087560702388132 0.21723653340964602 1.0000000180025095e-35 0.50678086279973666 1.1931742955093376 0.33918037438023879 0.29142608657145758 1.0000000180025095e-35 0.30141089303199875 -1.4509225687807323 -1.6457674360120988 0.15259574124902009 1.0000000180025095e-35 -0.71019628819588976 0.77125627297379562
decision_type=2 2 2 2 2 2 2 2 2 2 2 2 2 2 2 2 2 2 2 2 2 2 2 2 2 2 2 2 2
left_child=1 -1 3 8 17 11 16 9 22 18 -10 -6 -8 -9 -4 -16 21 -2 19 -7 -21 -5 23 -3 25 -24 27 -14 -29
right_child=4 2 14 6 5 7 12 13 10 -11 -12 -13 26 -15 15 -17 -18 -19 -20 20 -22 -23 24 -25 -26 -27 -28 28 -30
leaf_value=0.050598821504456909 0.04950376868788682 0.050097336847447806 0.04701308543680608 0.048479536176630103 0.045560440881268593 0.041752304613038485 0.041802774893746404 0.047011497566117368 0.039133931488319354 0.045953300038010847 0.046895822149255591 0.050299331548359305 0.037233760449328294 0.037410546992691009 0.048286036285518516 0.034980574646562665 0.038745360664862658 0.055327336374179741 0.055046250731518837 0.030286156808587462 0.042536191075816132 -0.011089861609389368 0.052351512856634884 0.037792587278880005 0.047775361504165947 0.024290176382831749 0.054997497629762727 0.02670601277710492 0.034384159611016395
leaf_weight=3465.880448371172 3708.2022134587169 375.74893901497126 7474.4431717917323 930.71130507439375 4426.0384416803718 3427.902396723628 922.1000869423151 11998.130394466221 1561.6722433418036 3463.467429369688 4761.3528288677335 10336.596465781331 1421.4934456832707 740.61786880344152 818.89566235244274 1084.8445235788822 4831.3187875263393 3020.7893766090274 235.51068384945393 1165.5571488961577 704.71649648249149 15.923349462449549 120.99170006811619 5410.60557256639 1339.5006757155061 225.024269528687 100.05054216086864 2059.0760397873819 1762.0851045809686
leaf_count=16202 14755 2006 42632 4675 22887 21869 7107 62213 11929 18995 28216 43108 11844 4656 4466 7645 38937 7985 993 9635 4224 182 728 42282 8305 2091 534 19732 15337
internal_value=0 0.042202 0.0413756 0.0397943 0.0472975 0.0464088 0.0369258 0.0447314 0.0422984 0.0422935 0.0449788 0.0488785 0.0339283 0.0464533 0.0457323 0.0407039 0.040176 0.0521181 0.0400028 0.0393341 0.034902 0.0474775 0.0400301 0.0385916 0.0449685 0.0341024 0.0325692 0.0321412 0.0302467
internal_weight=0 38681.7 35215.8 25837.7 43227.5 36498.5 12042.8 21735.9 13794.9 8997.15 6323.03 14762.6 6264.81 12738.7 9378.18 1903.74 5777.95 6728.99 5533.69 5298.18 1870.27 946.635 7471.87 5786.35 1685.52 346.016 5342.71 5242.65 3821.16
internal_count=476170 264850 248648 193905 211320 188580 98348 122585 95557 55716 40145 65995 54554 66869 54743 12111 43794 22740 36721 35728 13859 4857 55412 44288 11124 2819 47447 46913 35069
shrinkage=0.01


Tree=15
num_leaves=30
num_cat=0
split_feature=2 4 9 20 1 10 68 1 14 1 9 10 14 7 36 58 6 14 5 9 5 40 19 14 17 14 161 14 42
split_gain=4909.27 3297.1 2372.3 2263.48 1954.42 1277.87 1077.17 993.124 853.076 876.875 803.941 799.154 796.08 742.315 671.169 664.564 585.798 551.673 505.509 507.353 490.592 682.648 471.399 601.027 469.152 519.436 466.04 464.869 473.56
threshold=1.0000000180025095e-35 1.0000000180025095e-35 -0.21215001497012123 1.0000000180025095e-35 0.40089313268137428 1.0000000180025095e-35 1.0000000180025095e-35 -1.0805594284883109 -0.61378419183464705 -1.0805594284883109 -1.2549892426182485 -0.46869854312794318 -0.81836732698112891 1.0000000180025095e-35 1.0000000180025095e-35 1.0000000180025095e-35 1.0000000180025095e-35 0.72423740369935297 0.90358068048147755 -0.21215001497012123 0.33918037438023879 1.0000000180025095e-35 1.0000000180025095e-35 0.2044563688400898 0.8215206625798035 2.2432598558081414 1.0000000180025095e-35 2.3864993970154162 1.0000000180025095e-35
decision_type=2 2 2 2 2 2 2 2 2 2 2 2 2 2 2 2 2 2 2 2 2 2 2 2 2 2 2 2 2
left_child=1 3 6 -1 5 10 -2 -3 11 -10 24 -4 -9 17 22 20 -6 -12 19 -14 26 -22 23 -11 -5 -26 -8 28 -7
right_child=2 7 8 4 16 27 15 12 9 14 13 -13 18 -15 -16 -17 -18 -19 -20 -21 21 -23 -24 -25 25 -27 -28 -29 -30
leaf_value=0.051210892983465497 0.046928017488763143 0.046698970314068444 0.032327379417916378 0.041219070017936579 0.050832781035537219 0.044713025293546947 0.035484718009074656 0.033461362825297949 0.048600874704735467 0.037782674461113941 0.039727705431430199 0.040606040197266192 0.035804300097526061 0.048179157720775481 0.053966240781711701 0.049003973320031688 0.046352941709655544 0.045538399463370731 0.036778732305840445 0.042807489104534475 0.028584023801889336 0.0401821130365759 0.045282786637734489 0.043201878819436212 0.031354957572974303 0.047813399931287574 0.070181131577880168 0.051731504339935404 0.05702190219245825
leaf_weight=6975.7109166532755 727.51725027710199 2227.699732452631 1631.2952519729733 1363.9361215010285 5062.190301053226 8059.5146632865071 4696.8338157385588 1884.0295888483524 2219.5268329679966 4745.2233347669244 6009.2802123725414 4088.303480990231 1217.1460620388389 1942.0110788419843 429.47811526060104 294.20933965593576 6894.2336757108569 2244.0492164865136 2726.003011085093 6892.5759821236134 2703.802394092083 624.74716252833605 2244.1584952175617 3598.5718042254448 1539.9414163082838 219.03315676748753 39.034510813653469 1248.2394082918763 325.17448270320892
leaf_count=21869 3517 10957 14100 8435 19492 40452 36128 14620 10788 32228 39121 27364 8200 7920 1592 1396 34407 10603 17705 36906 25316 4471 12384 18117 11824 873 138 4124 1123
internal_value=0 0.0445716 0.0394584 0.0460105 0.0449713 0.0432635 0.0352573 0.0405397 0.0414721 0.0428665 0.0412567 0.0382449 0.039461 0.0426165 0.0417113 0.0342415 0.0482496 0.0413076 0.0405042 0.0417564 0.0337029 0.0307609 0.0412142 0.0401199 0.0368175 0.0334044 0.0357707 0.046038 0.0451904
internal_weight=0 56830.8 28042.7 41883.3 34907.6 22951.2 9086.14 14947.5 18956.6 13237 13318.3 5719.6 12719.8 10195.3 11017.4 8358.63 11956.4 8253.33 10835.7 8109.72 8064.42 3328.55 10588 8343.8 3122.91 1758.97 4735.87 9632.93 8384.69
internal_count=476170 288631 187539 200243 178374 124475 70966 88388 116573 75109 78776 41464 77431 57644 64321 67449 53899 49724 62811 45106 66053 29787 62729 50345 21132 12697 36266 45699 41575
shrinkage=0.01


Tree=16
num_leaves=30
num_cat=0
split_feature=14 7 11 1 14 40 5 20 12 3 68 5 34 11 33 52 9 74 1 11 68 4 2 15 0 9 14 7 1
split_gain=4463.17 3051.71 2155.54 1532.75 1126.08 1116.54 868.722 763.675 759.721 747.665 746.161 709.872 698.85 787.785 670.818 552.059 548.592 545.132 516.643 511.648 510.09 480.947 558.526 448.56 535.846 430.819 428.993 418.352 417.361
threshold=0.57420374190401524 1.0000000180025095e-35 0.029965150357857892 -1.4509225687807323 -0.86156416841173222 1.0000000180025095e-35 0.33918037438023879 1.0000000180025095e-35 -2.219171967209546 1.0000000180025095e-35 1.0000000180025095e-35 -0.50742008477161926 1.0000000180025095e-35 -0.082019045339932747 1.0000000180025095e-35 1.0000000180025095e-35 0.83068921267800666 1.0000000180025095e-35 0.40089313268137428 0.5203251838813675 1.0000000180025095e-35 1.0000000180025095e-35 1.0000000180025095e-35 0.18361895630058661 0.80508348163540588 -1.9502153943836673 -1.5973622245035453 1.0000000180025095e-35 -1.0805594284883109
decision_type=2 2 2 2 2 2 2 2 2 2 2 2 2 2 2 2 2 2 2 2 2 2 2 2 2 2 2 2 2
left_child=1 2 4 -4 -1 6 8 -2 -5 16 -3 27 14 28 25 18 -8 -10 20 23 -13 22 -7 24 -12 -6 -18 -9 -14
right_child=7 10 3 5 12 21 9 11 17 -11 19 15 13 -15 -16 -17 26 -19 -20 -21 -22 -23 -24 -25 -26 -27 -28 -29 -30
leaf_value=0.029102756654118857 0.048861648519938183 0.052046788799934483 0.048249163274968428 0.048000739090163932 0.050197202793068676 0.0471488028398514 0.033323585838483202 0.045167585869530166 0.039668456297575636 0.041971682311210998 0.042339767692519202 0.048309590715416142 0.039403802570487902 0.0392429453947876 0.032542989929172011 0.030755467404913379 0.0038761020224680992 0.023574625549294372 0.045263036140010871 0.047515863702993794 0.040308498613577069 0.03769384247670416 0.04033796777889969 0.039759648763913712 0.05237709223721005 0.039362301477286754 0.038769637704153793 0.050940018410796137 0.029537145875695399
leaf_weight=2323.9392053931952 3700.4082810655236 1240.2891331613064 2110.7108427286148 1110.551287047565 392.06641805171967 3244.8406603485346 5668.1212123408914 5509.6883885636926 17660.387907281518 2008.5194247439504 1798.9510136693716 903.20347739011049 503.61026807129383 1765.9150886833668 1474.6107416152954 383.2337858453393 35.606757365167141 213.00503274053335 5521.5861134976149 2522.7589645907283 6763.4498766288161 1243.6887524351478 1914.4182212501764 3394.4686591252685 755.12439820915461 5735.9040188193321 3364.5382716432214 1626.05782892555 2882.8831409662962
leaf_count=20942 9976 3559 7962 4810 1926 14483 41130 22623 103605 10836 8579 3217 3755 12060 11531 2176 393 1561 21978 9566 33650 7261 11083 18034 2676 36781 21211 4640 24166
internal_value=0 0.0396445 0.0387108 0.039964 0.0355049 0.0394844 0.0386768 0.0446773 0.0399753 0.0364513 0.0448027 0.0439296 0.0366714 0.0338281 0.0385984 0.042587 0.0352286 0.0394767 0.0429308 0.0437421 0.0412511 0.0432759 0.0446215 0.0421416 0.0453073 0.0400555 0.0384042 0.046483 0.0310044
internal_weight=0 63364.9 53653.3 38574.4 15078.9 36463.7 30060.7 24407.6 18983.9 11076.8 9711.59 20707.2 12755 5152.41 7602.58 13571.5 9068.27 17873.4 13188.2 8471.3 7666.65 6402.95 5159.26 5948.54 2554.08 6127.97 3400.15 7135.75 3386.49
internal_count=476170 377910 335496 224335 111161 216373 183546 98260 109976 73570 42414 88284 90219 39981 50238 61021 62734 105166 58845 38855 36867 32827 25566 29289 11255 38707 21604 27263 27921
shrinkage=0.01


Tree=17
num_leaves=30
num_cat=0
split_feature=2 4 9 20 1 10 68 1 5 5 14 15 38 9 58 20 134 6 60 24 5 14 67 11 93 13 166 11 1
split_gain=4168.26 2764.33 2015.24 1949.41 1651.8 1081.55 926.013 842.841 748.065 687.875 682.801 645.615 728.688 598.515 570.287 496.815 653.476 493.432 489.941 463.95 456.642 444.6 465.788 481.806 517.637 479.165 437.776 436.39 467.838
threshold=1.0000000180025095e-35 1.0000000180025095e-35 -0.21215001497012123 1.0000000180025095e-35 0.40089313268137428 1.0000000180025095e-35 1.0000000180025095e-35 -1.0805594284883109 0.33918037438023879 1.0000000180025095e-35 -0.81836732698112891 0.35055763750164515 1.0000000180025095e-35 0.83068921267800666 1.0000000180025095e-35 1.0000000180025095e-35 1.0000000180025095e-35 1.0000000180025095e-35 1.0000000180025095e-35 1.0000000180025095e-35 0.90358068048147755 -0.94798541240284528 1.0000000180025095e-35 0.038807332262614673 1.0000000180025095e-35 1.147703324114965 1.0000000180025095e-35 -0.1195937327828438 -1.0805594284883109
decision_type=2 2 2 2 2 2 2 2 2 2 2 2 2 2 2 2 2 2 2 2 2 2 2 2 2 2 2 2 2
left_child=1 3 6 -1 5 9 -2 -3 15 11 -9 12 -5 -11 27 -4 21 -6 -13 20 -12 22 23 24 25 -17 -10 28 -8
right_child=2 7 8 4 17 -7 14 10 26 13 19 18 -14 -15 -16 16 -18 -19 -20 -21 -22 -23 -24 -25 -26 -27 -28 -29 -30
leaf_value=0.046787056973517815 0.042986961039747966 0.042760303604689569 0.043791832488680862 0.035172620236862372 0.04638985873925177 0.042139999141126087 0.036626173354690449 0.030911490856395638 0.035707478895218067 0.033886207897698327 0.038001535773464185 0.045571131766260223 0.042518241896796816 0.043770781537734706 0.044815009922135822 0.012462779231484665 0.00065051919196277522 0.042420809763092725 0.03445079547813798 0.046920637730604543 0.03330417254793501 0.039529826234533043 0.049811663295161637 0.034654104696487546 0.075913697510509026 0.077354189189922401 0.016730819129148863 0.033127198311736175 0.027026233882537776
leaf_weight=7487.0476337596774 778.79977174848318 2385.2772974595428 2199.6962368786335 3805.9289183020592 5439.5558166652918 10314.054789610207 605.18690959364176 1995.0024188905954 6575.0411072000861 4844.8982037380338 8309.7626889199018 2280.2423653751612 2093.2056589126587 701.23753470182419 315.5683855265379 226.0044641494751 45.198275707662106 7384.3085645586252 479.50903108716011 475.38601865619421 2755.83621750772 9770.4398206248879 160.19419005513191 1092.4268397241831 15.204189322888849 11.982484117150305 123.85599826276302 4788.4476535692811 3149.5575475469232
leaf_count=21869 3517 10957 9276 22507 19492 45699 4678 14620 41395 30798 43997 9391 10100 3368 1396 2397 479 34407 2612 1604 17210 53409 688 7650 54 57 1168 34197 27178
internal_value=0 0.0408587 0.0362957 0.04213 0.0411962 0.0396752 0.0325326 0.0372793 0.0380893 0.0378856 0.0363135 0.0396467 0.0377791 0.035136 0.0316135 0.0394431 0.0385982 0.0441044 0.043639 0.0372473 0.0368317 0.0387503 0.0336924 0.0317734 0.0193441 0.01573 0.0353566 0.0311259 0.0285735
internal_weight=0 60751.3 29857.6 44830 37342.9 24519.1 9637.56 15921.3 20220 14205 13536 8658.89 5899.13 5546.14 8858.76 13521.1 11321.5 12823.9 2759.75 11541 11065.6 11276.3 1505.81 1345.62 253.191 237.987 6698.9 8543.19 3754.74
internal_count=476170 288631 187539 200243 178374 124475 70966 88388 116573 78776 77431 44610 32607 34166 67449 74010 64734 53899 12003 62811 61207 64255 10846 10158 2508 2454 42563 66053 31856
shrinkage=0.01


Tree=18
num_leaves=30
num_cat=0
split_feature=14 7 10 68 17 5 2 1 14 1 1 5 5 40 36 1 26 34 18 16 34 33 105 4 16 10 13 88 11
split_gain=3898.74 2118.78 1508.54 1489.02 1330.21 1102.99 984.89 745.473 709.065 700.091 694.205 635.949 614.595 559.772 524.209 523.808 579.967 514.949 517.737 513.943 507.04 721.74 469.734 449.268 461.904 449.24 447.475 430.574 460.367
threshold=-0.14400109088449395 1.0000000180025095e-35 -0.22148721449036771 1.0000000180025095e-35 1.0000000180025095e-35 1.0000000180025095e-35 1.0000000180025095e-35 1.0000000180025095e-35 -1.1726501525248787 -1.0805594284883109 -1.4509225687807323 0.33918037438023879 0.90358068048147755 1.0000000180025095e-35 1.0000000180025095e-35 -1.0805594284883109 1.0000000180025095e-35 1.0000000180025095e-35 1.0000000180025095e-35 0.44250738267637063 1.0000000180025095e-35 1.0000000180025095e-35 1.0000000180025095e-35 1.0000000180025095e-35 0.83053509967063288 -0.46869854312794318 -1.1013706848226856 1.0000000180025095e-35 0.18059894096017831
decision_type=2 2 2 2 2 2 2 2 2 2 2 2 2 2 2 2 2 2 2 2 2 2 2 2 2 2 2 2 2
left_child=1 2 5 -2 23 20 7 9 -4 -6 22 -8 -11 25 -12 19 26 -9 -19 -7 21 -1 -10 24 -5 -3 -17 28 -13
right_child=3 13 8 4 6 15 11 17 10 12 14 27 -14 -15 -16 16 -18 18 -20 -21 -22 -23 -24 -25 -26 -27 -28 -29 -30
leaf_value=0.038402345005395001 0.044459252906628985 0.034830413997527405 0.029658758575663361 0.043418038034216615 0.041482498651867462 0.031996421462778077 0.036858386184708589 0.041654803976610928 0.046256190137109215 0.036908380709795761 0.036509592847152009 0.02584484620653666 0.029563362155755519 0.046311751030682177 0.045862820933734262 0.011607134232099636 0.040766790597350652 0.041396726427721166 0.031054654571105754 0.044900876273826738 0.032242771754042811 0.030430773508189849 -0.011533803308692281 0.036871192463309221 0.038698854672774285 0.041379304923993894 0.028928537824291625 0.054148515675852396 0.034383826833049594
leaf_weight=5237.7695420533419 5731.6752390936017 1547.6670378595591 1237.610629349947 9214.2807475402951 2894.3821336477995 1097.7292985245585 5280.0250397771597 9861.5457875877619 1015.9559405073524 7847.3136890530586 12963.740809231997 1264.3092009648681 1332.6756326705217 1473.1261188611388 628.25208482146263 152.30283299833536 411.67021328955889 930.71433786302805 1008.6356155797839 429.33739703893661 4206.9851697906852 1450.2562372088432 14.262688241899012 1708.0773653537035 2676.5008650943637 3241.0221310332417 7188.6807933747768 76.772545740008354 1261.2212709486485
leaf_count=29823 18092 8645 8771 33472 12402 7863 27574 38286 3288 38182 72561 9178 7951 5088 2518 1598 2172 3839 5332 2450 29428 10256 124 7866 11159 13976 57148 285 6843
internal_value=0 0.035552 0.034619 0.0396567 0.0390498 0.0328049 0.0379292 0.0389411 0.0369266 0.0371942 0.0375418 0.0348643 0.0358421 0.0409211 0.0369419 0.0302713 0.0292169 0.0407284 0.0360179 0.0356245 0.0349628 0.0366738 0.0454561 0.0416669 0.0423558 0.0392628 0.0285692 0.0308183 0.0301091
internal_weight=0 42296.4 36034.6 51088.1 45356.5 20174.7 31757.6 23875.3 15859.8 12074.4 14622.2 7882.33 9179.99 6261.82 13592 9279.72 7752.65 11800.9 1939.35 1527.07 10895 6688.03 1030.22 13598.9 11890.8 4788.69 7340.98 2602.3 2525.53
internal_count=476170 255709 228000 220461 202369 140738 149872 105992 87262 58535 78491 43880 46133 27709 75079 71231 60918 47457 9171 10313 69507 40079 3412 52497 44631 22621 58746 16306 16021
shrinkage=0.01


Tree=19
num_leaves=30
num_cat=0
split_feature=14 20 11 6 12 14 1 7 5 11 14 13 9 15 1 5 16 0 15 5 67 3 11 11 147 10 0 3 40
split_gain=3628.69 2622.56 1877.75 1179.63 905.463 732.904 662.691 661.09 652.274 630.308 563.54 548.517 524.687 520.841 494.64 473.805 454.091 452.001 448.926 540.242 448.708 589.913 438.364 418.081 407.596 403.194 400.029 410.157 395.219
threshold=0.57420374190401524 1.0000000180025095e-35 0.029965150357857892 1.0000000180025095e-35 -2.219171967209546 -0.75325804683540143 -1.0805594284883109 1.0000000180025095e-35 -0.22521993172099997 0.4669082704430309 2.9381316775824851 -1.1013706848226856 -1.6026023185009579 0.13550253752367072 -1.0805594284883109 0.33918037438023879 0.23576470230434471 0.80508348163540588 0.21862122840945963 0.62138052743085814 1.0000000180025095e-35 1.0000000180025095e-35 0.17205897393908032 0.43575260597047066 1.0000000180025095e-35 -0.71590987176551868 0.30141089303199875 1.0000000180025095e-35 1.0000000180025095e-35
decision_type=2 2 2 2 2 2 2 2 2 2 2 2 2 2 2 2 2 2 2 2 2 2 2 2 2 2 2 2 2
left_child=1 9 4 20 -3 18 16 10 -8 26 22 -10 13 17 25 24 -6 -13 -5 -20 21 23 28 -4 -16 -7 27 -1 -2
right_child=7 2 3 5 6 14 8 -9 11 -11 -12 12 -14 -15 15 -17 -18 -19 19 -21 -22 -23 -24 -25 -26 -27 -28 -29 -30
leaf_value=0.034956840694650493 0.034328741904422262 0.03924182616541852 0.034084637391362152 0.034331251483318198 0.030820046554337132 0.029567460160617776 0.032267114824724642 0.042601275144116997 0.0019522732030651871 0.042890711013944927 0.042994201263149873 0.027333175860401866 0.029639387617533694 0.019741373626085305 0.035388693483350081 0.032356306804015314 0.040014723251397682 0.051718783793576452 0.031093557211536855 0.022066856201906845 0.042763561566043481 0.040394663280025042 0.039118126569261759 0.038132408957030656 0.050210313048509238 0.039672948784088315 0.041676956144132825 0.041476800659093163 0.040289247202031149
leaf_weight=4169.0711658596992 4427.6211361587048 1334.3125022873282 6058.1637248247862 2108.4415706470609 1002.7422114312649 453.50187201797962 5595.4799267202616 5418.1903439313173 82.04025262594223 3789.2896434962749 2663.7614202424884 426.67698688060045 4929.4036103859544 1235.8492412567139 9954.9564007893205 7549.1674525290728 1156.7086598277092 92.486301206052303 2195.6191436052322 949.86176677048206 1499.8744307532907 3788.5471069812775 12806.588136911392 4408.5876291319728 189.06415416300297 3051.2138825580478 2022.1844248995185 1255.3869144544005 1485.7061148732901
leaf_count=20728 20466 6949 33769 13188 7323 2873 35767 15377 962 11235 7564 3321 35914 10772 52040 45696 6663 445 14689 8061 5299 15499 49004 20216 727 14136 7395 4243 5849
internal_value=0 0.0351482 0.0342924 0.0353946 0.0313583 0.0341044 0.030634 0.0394812 0.0297411 0.0395704 0.0386907 0.0276523 0.0279677 0.0232722 0.0349331 0.0342532 0.0357452 0.0316773 0.0307609 0.0283677 0.0375608 0.0370134 0.0380783 0.0357896 0.0356649 0.0383653 0.0378809 0.0364658 0.0358263
internal_weight=0 69298.6 58062.7 42207 15855.7 26451.8 14521.4 26801.9 12361.9 11235.9 21383.7 6766.46 6684.42 1755.01 21197.9 17693.2 2159.45 519.163 5253.92 3145.48 15755.2 14255.3 18719.9 10466.8 10144 3504.72 7446.64 5424.46 5913.33
internal_count=476170 377910 334309 226193 108116 151410 101167 98260 87181 43601 82883 51414 50452 14538 115472 98463 13986 3766 35938 22750 74783 69484 75319 53985 52767 17009 32366 24971 26315
shrinkage=0.01


Tree=20
num_leaves=30
num_cat=0
split_feature=2 4 9 40 1 1 68 1 6 16 11 1 14 16 106 6 11 58 67 5 12 30 40 5 17 24 15 32 1
split_gain=3390.56 2269.54 1657.86 1644.1 1168.98 809.295 773.794 686.082 680.325 637.837 685.777 568.213 563.46 518.505 511.388 501.089 497.515 476.192 470.378 469.548 414.249 393.439 414.593 505.573 404.993 387.189 385.377 383.368 419.209
threshold=1.0000000180025095e-35 1.0000000180025095e-35 -0.21215001497012123 1.0000000180025095e-35 1.0000000180025095e-35 -1.4509225687807323 1.0000000180025095e-35 -1.0805594284883109 1.0000000180025095e-35 -0.20979639451777174 0.47329443679173572 -1.0805594284883109 -0.81836732698112891 0.83053509967063288 1.0000000180025095e-35 1.0000000180025095e-35 0.19687763240728204 1.0000000180025095e-35 1.0000000180025095e-35 0.33918037438023879 -2.219171967209546 1.0000000180025095e-35 1.0000000180025095e-35 0.33918037438023879 1.0000000180025095e-35 1.0000000180025095e-35 0.2927283083232895 1.0000000180025095e-35 1.5119825535586384
decision_type=2 2 2 2 2 2 2 2 2 2 2 2 2 2 2 2 2 2 2 2 2 2 2 2 2 2 2 2 2
left_child=1 3 6 4 5 -1 -2 -3 20 10 19 -11 26 -5 15 -6 -10 21 -13 -4 -7 22 23 -8 27 -14 -9 28 -25
right_child=2 7 9 13 14 8 17 12 16 11 -12 18 25 -15 -16 -17 -18 -19 -20 -21 -22 -23 -24 24 -26 -27 -28 -29 -30
leaf_value=0.042645802839432256 0.038227723391775957 0.037929654473032939 0.031593870417634569 0.041318345354964973 0.040467287665454696 0.044577396278463549 0.028743952454206721 0.029340035662449561 0.029713384632099316 0.039268155196285459 0.036456253762563263 0.033584090238343446 0.032812331053906657 0.036545117203327926 0.01626983073895966 0.036886534322552803 0.034190939026418822 0.039805025852115553 0.040606671426429423 0.025115961073490758 0.035674225044505202 0.044641486180967783 0.032520449564718862 0.022102380766835263 0.022275118905413532 0.041618221643609739 0.017104532907384153 0.057682620016414214 0.053937995035033402
leaf_weight=1167.145606033504 850.74112351983786 2610.2137007191777 3628.0208088830113 11001.795184031129 6716.6774767935276 565.40616489201784 4634.2350101992488 1857.9977081045508 4158.9001755565405 2699.9014232009649 2017.5160236060619 11006.567234270275 12034.420911982656 2869.2968479171395 105.25749469548464 9346.1940423697233 6152.927113853395 345.36778397113085 1044.2856053709984 1617.9573580697179 6903.3247374743223 137.38841260224581 1437.1698455289006 190.75654192268848 2727.6697582378983 520.93051460385323 298.82052335143089 57.650343470275402 52.813996165990829
leaf_count=3332 3517 10957 22206 37033 22356 1891 31597 12284 25250 11496 9953 57061 61207 10650 735 39668 29296 1396 3835 12022 30032 752 8660 1466 23060 1604 2336 266 252
internal_value=0 0.036316 0.032371 0.0374161 0.0362647 0.0345793 0.0290878 0.0332048 0.0340498 0.0339272 0.0315015 0.0351216 0.0323666 0.040331 0.0382399 0.0383838 0.0323851 0.0282763 0.0341926 0.029596 0.0363482 0.0278453 0.0275918 0.0266674 0.0234903 0.0331777 0.0276448 0.0344939 0.0290054
internal_weight=0 66309.3 32448 48986.9 35115.8 18947.7 10433.8 17322.4 17780.6 22014.2 7263.49 14750.8 14712.2 13871.1 16168.1 16062.9 10311.8 9583.05 12050.9 5245.98 7468.73 9237.68 9100.3 7663.13 3028.89 12555.4 2156.82 301.221 243.571
internal_count=476170 288631 187539 200243 152560 89801 70966 88388 86469 116573 44181 72392 77431 47683 62759 62024 54546 67449 60896 34228 31923 66053 65301 56641 25044 62811 14620 1984 1718
shrinkage=0.01


Tree=21
num_leaves=30
num_cat=0
split_feature=14 68 11 20 6 5 1 1 9 1 0 16 0 11 14 0 15 14 18 11 52 9 13 0 7 18 2 13 36
split_gain=3245.21 2022.21 1763.39 1131.72 1069.43 1007.3 734.196 721.511 564.165 554.179 539.308 529.949 520.982 556.787 642.597 500.848 469.929 457.029 464.35 522.191 446.191 444.205 439.661 438.049 421.459 421.317 412.134 418.316 405.998
threshold=0.096661754207146997 1.0000000180025095e-35 0.4162830139086946 1.0000000180025095e-35 1.0000000180025095e-35 1.0000000180025095e-35 -1.4509225687807323 1.0000000180025095e-35 -0.90737616673553945 -1.0805594284883109 -0.70593428417481552 -0.20979639451777174 0.30141089303199875 -0.082019045339932747 -0.61378419183464705 1.3087560702388132 0.24012613772731989 1.3275292206896951 1.0000000180025095e-35 0.43575260597047066 1.0000000180025095e-35 0.83068921267800666 -1.0932349448382543 0.30141089303199875 1.0000000180025095e-35 1.0000000180025095e-35 1.0000000180025095e-35 -1.1013706848226856 1.0000000180025095e-35
decision_type=2 2 2 2 2 2 2 2 2 2 2 2 2 2 2 2 2 2 2 2 2 2 2 2 2 2 2 2 2
left_child=1 -1 3 23 10 9 -6 8 -8 -5 -2 26 13 -11 -15 24 22 18 -9 20 -20 -13 -17 -3 -4 -16 28 -28 -7
right_child=4 2 15 5 6 11 7 17 -10 12 -12 21 -14 14 25 16 -18 -19 19 -21 -22 -23 -24 -25 -26 -27 27 -29 -30
leaf_value=0.038181976248265616 0.034911449252553614 0.032802849633808639 0.034343424673874405 0.035333946787697197 0.044087180204861874 0.027148944255006906 0.027810549850993127 0.037033991248372831 0.033415947219139888 0.025453152438632616 0.038648665929061167 0.027735024781690765 0.033879097309712294 0.026886942420848162 0.036796138779302046 0.012715869616307052 0.026884919079379524 0.038403111403446127 0.030480009359818122 0.036287157993089389 0.0059265870956980741 0.033129421223911597 0.035685817955606207 0.039378227952661514 0.03931404015887624 0.030486742271126754 0.0067945971651155413 0.023296795934109171 0.047924897226978
leaf_weight=5071.1898538246751 5412.1337176188827 3629.9559600949287 11337.022308342159 2708.6821056976914 770.22419650107622 2267.2001421004534 2191.2056550309062 4054.4420417100191 9943.4731228649616 2799.0004183277488 13475.959650993347 6266.4272726252675 3185.7180055081844 2697.9386109411716 1804.2840190157294 88.003025911748409 1614.1746253892779 4410.2285810187459 2993.0984573364258 2164.2578453868628 75.887622691690922 2018.1144569739699 1569.0614701956511 1405.4456539452076 2007.9552554413676 2560.0261858105659 163.35038747638464 2576.2057775110006 98.130565956234932
leaf_count=18670 20837 17392 54445 14433 1729 15358 12316 15333 44450 19749 40809 42689 16866 17951 8355 664 8890 13348 14872 8390 549 11626 6920 5075 6874 14429 1708 21053 390
internal_value=0 0.0321606 0.0315595 0.0302604 0.0357582 0.0295041 0.0344662 0.0341794 0.0324038 0.0312179 0.0375778 0.0274874 0.0303633 0.0292276 0.0307235 0.0342318 0.0307251 0.0357524 0.0344937 0.0325256 0.0298729 0.0290491 0.0344659 0.0346381 0.0350913 0.0330952 0.024953 0.0223128 0.0280109
internal_weight=0 55867.9 50796.7 34180.5 45490.9 29145.1 26602.8 25832.6 12134.7 15755.6 18888.1 13389.4 13047 9861.25 7062.25 16616.2 3271.24 13697.9 9287.69 5233.24 3068.99 8284.54 1657.06 5035.4 13345 4364.31 5104.89 2739.56 2365.33
internal_count=476170 303537 284867 207074 172633 184607 110987 109258 56766 91783 61646 92824 77350 60484 40735 77793 16474 52492 39144 23811 15421 54315 7584 22467 61319 22784 38509 22761 15748
shrinkage=0.01


Tree=22
num_leaves=30
num_cat=0
split_feature=14 20 11 7 12 1 14 9 20 34 33 22 34 5 15 42 40 18 0 16 36 0 5 14 1 12 132 9 41
split_gain=3047.77 2237.06 1552.11 985.37 756.149 719.664 739.933 612.4 601.084 558.598 644.584 556.824 603.401 541.873 508.313 482.422 469.021 461.373 512.578 450.417 472.787 430.593 416.298 416.237 512.99 463.136 411.688 402.742 407.998
threshold=0.57420374190401524 1.0000000180025095e-35 0.029965150357857892 1.0000000180025095e-35 -2.219171967209546 -1.0805594284883109 -0.48208863526216672 0.48307613679529726 1.0000000180025095e-35 1.0000000180025095e-35 1.0000000180025095e-35 1.0000000180025095e-35 1.0000000180025095e-35 -1.3540205439234771 0.25262196225143835 1.0000000180025095e-35 1.0000000180025095e-35 1.0000000180025095e-35 1.3087560702388132 -1.6457674360120988 1.0000000180025095e-35 -0.70593428417481552 0.33918037438023879 2.5401787282356625 0.77125627297379562 -2.219171967209546 1.0000000180025095e-35 -1.2549892426182485 1.0000000180025095e-35
decision_type=2 2 2 2 2 2 2 2 2 2 2 2 2 2 2 2 2 2 2 2 2 2 2 2 2 2 2 2 2
left_child=1 11 4 5 -3 7 22 -4 -2 10 19 12 -1 -10 -8 17 -11 18 -16 20 27 -19 -7 24 25 -15 -21 28 -6
right_child=8 2 3 -5 9 6 14 -9 13 16 -12 -13 -14 23 15 -17 -18 21 -20 26 -22 -23 -24 -25 -26 -27 -28 -29 -30
leaf_value=0.036330766187740691 0.038767880348094044 0.035127201171829457 0.030857141533660936 0.035142928170778645 0.00035788647445898709 0.030008783928642837 0.033541659366222658 0.037053177339864234 0.038528090430560352 0.023984874088132872 0.023937058482757158 0.04300421027414638 0.031210378405105162 0.042866209009137554 0.033485564832117946 0.037364273738463905 0.030872439687390615 0.022873808644464616 0.02590321572221238 0.030609184542693058 0.052287285837672962 0.029314764092346794 0.02613645898929421 0.037312147478363394 0.036149507804097605 0.032086762458923897 0.043410350457409014 0.025035784510520642 0.09065594081046395
leaf_weight=8035.2917050048709 4402.9139424562454 1448.0163938105106 2982.983162291348 7203.1550634279847 138.32513033598661 7075.2674661502242 8366.4567766562104 3428.6897505372763 3298.9626054242253 5171.5009954050183 1888.5776221081614 908.13916706293821 3225.1898378282785 412.19293185323477 4204.887578740716 901.85015544295311 1222.3896357789636 1357.8260747045279 1131.4698206484318 6667.9364805147052 41.600405804812908 4405.5242499634624 4569.1480097696185 3526.1440670117736 5327.1299426704645 12068.712087251246 261.06488301604986 226.48068548738956 5.1916123032569876
leaf_count=26405 9976 6949 15587 27211 1416 39669 38501 14083 9676 37804 13601 2572 14624 1251 19668 3415 7233 8254 6042 37961 174 23207 30556 9916 17818 49623 1274 1700 4
internal_value=0 0.0315479 0.0307864 0.0317488 0.0282142 0.0311125 0.0305 0.0341705 0.0353647 0.0275734 0.0291473 0.0354717 0.0348642 0.0347564 0.0316496 0.0303306 0.0253016 0.0297591 0.0318779 0.0304878 0.0203243 0.0277973 0.0284893 0.0341732 0.0335516 0.0324428 0.0310915 0.0167306 0.00362435
internal_weight=0 74867 62698.3 45627.3 17071.1 38424.1 32012.4 6411.67 29036.1 15623.1 9229.18 12168.6 11260.5 24633.1 20368 12001.6 6393.89 11099.7 5336.36 7340.6 411.598 5763.35 11644.4 21334.2 17808 12480.9 6929 369.997 143.517
internal_count=476170 377910 334309 226193 108116 198982 169312 29670 98260 101167 56130 43601 41029 88284 99087 60586 45037 57171 25710 42529 3294 31461 70225 78608 68692 50874 39235 3120 1420
shrinkage=0.01


Tree=23
num_leaves=30
num_cat=0
split_feature=7 14 10 68 14 5 11 20 14 18 1 11 34 0 20 0 5 147 9 15 5 8 11 14 5 39 20 5 10
split_gain=2913.64 2623.07 1172.02 1002.84 751.814 741.749 638.207 637.164 545.836 482.382 492.415 464.025 451.584 437.653 435.701 417.229 580.73 416.014 408.845 405.454 404.598 392.156 438.799 399.144 387.71 471.047 380.066 374.145 350.16
threshold=1.0000000180025095e-35 -0.28594576365387137 -0.22148721449036771 1.0000000180025095e-35 1.210048293780001 1.0000000180025095e-35 0.029965150357857892 1.0000000180025095e-35 -1.1726501525248787 1.0000000180025095e-35 -1.4509225687807323 0.087871568587448309 1.0000000180025095e-35 1.0000000180025095e-35 1.0000000180025095e-35 1.0000000180025095e-35 1.185780833532097 1.0000000180025095e-35 0.83068921267800666 0.13808693535938152 1.185780833532097 1.0000000180025095e-35 -0.030744762662991334 -0.93313502051866171 -1.6362206969740964 1.0000000180025095e-35 1.0000000180025095e-35 0.33918037438023879 0.76735810005993421
decision_type=2 2 2 2 2 2 2 2 2 2 2 2 2 2 2 2 2 2 2 2 2 2 2 2 2 2 2 2 2
left_child=1 2 5 -3 6 17 15 -2 -4 -8 -11 21 27 -12 -10 18 -17 -1 19 -5 -16 26 23 -23 -20 -26 -7 -9 -14
right_child=7 3 8 4 -6 11 9 12 14 10 13 -13 28 -15 20 16 -18 -19 24 -21 -22 22 -24 -25 25 -27 -28 -29 -30
leaf_value=0.028613115092207986 0.039076835237760704 0.036200059960213679 0.024766926036828819 0.030504363536971724 0.034090189292858779 0.028689811439894394 0.033160498191976702 0.036461285995715242 0.035322916380030177 0.040279343941054042 0.028529366661654645 0.027468229116455373 0.029825161323169903 0.032059948636879484 0.031222100121910228 0.03335901686796993 0.021027816103419156 0.050204174500388409 0.048314201897070357 0.024589809014648811 0.02540818445987119 -0.011099178723570779 0.050991403681686719 0.031532069363635451 0.032436238943420438 -0.00015789306063338047 0.020962843962232369 0.032434141167736998 0.039463484784606824
leaf_weight=10375.992229156196 3447.5324725136161 5511.8460483923554 1398.5361106395721 1646.4549694433808 10353.989889606833 757.81989581882954 13763.869164764881 7768.1023449376225 2273.7076630145311 502.32319824397564 7404.814359202981 3865.8143285438418 2913.3047169670463 6677.0013319700956 10031.524772502482 2916.0813498795033 439.46844949573278 90.014196544885635 145.72354385256767 3915.1311633214355 1359.1564676165581 26.427790939807892 101.96230129897594 129.97036312520504 836.80363000929356 46.819772034883499 3978.3131078928709 3281.548014074564 432.94879428297281
leaf_count=59641 7490 16582 8771 8814 34240 4122 54883 23755 7586 1357 35326 23958 12774 28232 49139 13273 2648 278 421 23308 8216 301 447 865 3998 376 31597 12576 1196
internal_value=0 0.030786 0.0286261 0.0321575 0.0316994 0.0269963 0.031053 0.0352154 0.0307172 0.0318177 0.0305505 0.024867 0.0342906 0.0302034 0.0313262 0.0288736 0.031744 0.0287988 0.0274122 0.0263408 0.0305284 0.0228537 0.034851 0.0243283 0.0332015 0.0307092 0.0221992 0.0352653 0.0310722
internal_weight=0 88549.6 34389.2 54160.3 48648.5 19326.3 38294.5 17843.4 15062.9 28348 14584.1 8860.31 14395.9 14081.8 13664.4 9946.48 3355.55 10466 6590.93 5561.59 11390.7 4994.49 258.36 156.398 1029.35 883.623 4736.13 11049.7 3346.25
internal_count=476170 418379 194921 223458 206876 121209 172636 57791 73712 119798 64915 61290 50301 63558 64941 52838 15921 59919 36917 32122 57355 37332 1613 1166 4795 4374 35719 36331 13970
shrinkage=0.01


Tree=24
num_leaves=30
num_cat=0
split_feature=40 2 9 14 20 6 12 5 20 5 4 16 10 31 1 58 5 14 132 1 9 168 10 171 0 89 1 1 79
split_gain=2791.47 1984.26 1220.64 1211.21 1218.65 804.506 716.012 683.109 648.225 612.857 519.467 488.234 472.188 493.398 439.389 448.697 432.945 404.483 393.825 382.466 416.784 377.741 364.713 416.372 436.649 362.105 361.661 352.556 377.247
threshold=1.0000000180025095e-35 1.0000000180025095e-35 -0.55976309085283027 2.3864993970154162 1.0000000180025095e-35 1.0000000180025095e-35 -2.219171967209546 0.33918037438023879 1.0000000180025095e-35 1.0000000180025095e-35 1.0000000180025095e-35 0.83053509967063288 -0.46869854312794318 1.0000000180025095e-35 -1.0805594284883109 1.0000000180025095e-35 0.62138052743085814 -1.2986912131159236 1.0000000180025095e-35 1.5119825535586384 -1.2549892426182485 1.0000000180025095e-35 -0.46869854312794318 1.0000000180025095e-35 1.0000000180025095e-35 1.0000000180025095e-35 -1.4509225687807323 0.77125627297379562 1.0000000180025095e-35
decision_type=2 2 2 2 2 2 2 2 2 2 2 2 2 2 2 2 2 2 2 2 2 2 2 2 2 2 2 2 2
left_child=1 3 14 4 17 6 -6 26 -2 22 11 27 13 25 -3 18 -12 -1 -16 20 -20 -11 23 24 -7 -9 -4 28 -10
right_child=8 2 7 -5 5 9 -8 12 10 21 16 -13 -14 -15 15 -17 -18 -19 19 -21 -22 -23 -24 -25 -26 -27 -28 -29 -30
leaf_value=0.014894862701664773 0.036704540866857503 0.029056637196300587 0.035693696758056163 0.036524720456293819 0.038233347386248465 0.023001367856809573 0.030813695229229988 0.020291646002924525 0.033213462343429485 0.026896702014174198 0.031774982676235325 0.030204868595615872 0.027840522427762353 0.048982762326429778 0.021965810149708997 0.037883244691626947 0.023718506652767337 0.03428927292133447 0.015096622246789558 0.055152877940036607 0.039962935684546314 0.037868683175023475 0.031329886408982856 0.035391553711943823 0.030112844876270903 0.043966534408133889 0.029564931992035519 0.036544933454706177 0.0019600494359991224
leaf_weight=109.05829801410437 4904.5579728409648 1497.8986393287778 1036.0500259622931 3425.2533278241754 1422.0656619444489 1817.2080087438226 15230.663663975894 1841.9675549641252 8920.8193937167525 13239.530776135623 1728.2867988944054 3936.8810222968459 4907.7929564118385 65.753520093858242 5864.7813985496759 197.36267741024494 1086.2651507854462 7695.5035201758146 130.61591728031635 63.804211013019085 139.27990473806858 321.39642411470413 8906.5844057351351 601.88407804816961 1644.9642411246896 66.952169224619865 13626.843836970627 4361.3672871589661 38.789631888270378
leaf_count=580 11792 8684 3481 8540 4359 10324 62189 13009 34059 69271 7015 15358 25819 262 40023 677 5676 21835 1051 294 715 1347 37893 2378 7969 301 66461 14540 268
internal_value=0 0.0296369 0.0275455 0.0307684 0.0303817 0.0297245 0.0314473 0.0287781 0.0334455 0.0286431 0.0326491 0.0332988 0.0261791 0.0220497 0.0241815 0.0230397 0.0286656 0.0340183 0.0225671 0.0331342 0.0279289 0.0271567 0.0301972 0.0277148 0.0263802 0.021122 0.029998 0.0342132 0.0330782
internal_weight=0 83853.2 29439.1 54414.1 50988.9 43184.3 16652.7 21545.4 24977 26531.6 20072.4 17257.9 6882.47 1974.67 7893.74 6395.84 2814.55 7804.56 6198.48 333.7 269.896 13560.9 12970.6 4064.06 3462.17 1908.92 14662.9 13321 8959.61
internal_count=476170 387462 160777 226685 218145 195730 66548 109333 88708 129182 76916 64225 39391 13572 51444 42760 12691 22415 42083 2060 1766 70618 58564 20671 18293 13310 69942 48867 34327
shrinkage=0.01


Tree=25
num_leaves=30
num_cat=0
split_feature=14 68 10 5 6 18 11 0 14 1 1 15 9 2 9 11 0 20 0 15 26 14 18 11 52 132 113 20 0
split_gain=2656.09 1698.47 1444.84 900.195 895.324 708.803 608.772 1006.85 614.144 606.833 606.485 495.135 478.865 468.814 553.75 457.929 449.425 427.915 438.601 450.083 379.558 363.154 382.442 441.509 390.663 339.072 357.368 331.142 326.917
threshold=0.096661754207146997 1.0000000180025095e-35 0.27293544278478316 0.33918037438023879 1.0000000180025095e-35 1.0000000180025095e-35 -0.082019045339932747 0.80508348163540588 -0.79951805415271404 -1.4509225687807323 1.0000000180025095e-35 0.06971537255152932 -0.90737616673553945 1.0000000180025095e-35 0.83068921267800666 -0.053542749544752334 -0.70593428417481552 1.0000000180025095e-35 1.3087560702388132 0.25223974539408534 1.0000000180025095e-35 1.3275292206896951 1.0000000180025095e-35 0.43575260597047066 1.0000000180025095e-35 1.0000000180025095e-35 1.0000000180025095e-35 1.0000000180025095e-35 -0.70593428417481552
decision_type=2 2 2 2 2 2 2 2 2 2 2 2 2 2 2 2 2 2 2 2 2 2 2 2 2 2 2 2 2
left_child=1 -1 3 6 16 20 7 -3 -8 -6 12 -7 -11 -13 25 -10 -2 -4 -19 -20 -5 22 -12 24 -24 26 -15 -18 -16
right_child=4 2 17 5 9 11 8 -9 15 10 21 13 -14 14 28 -17 27 18 19 -21 -22 -23 23 -25 -26 -27 -28 -29 -30
leaf_value=0.033418621662202906 0.030528312639432644 0.02340015262660711 0.034179128778387878 0.026239163060241905 0.03845516131376954 0.028858221105175486 0.025574769060122803 0.035165900697662247 0.038407933758415717 0.024282751977019405 0.032385663785662412 0.02474694291589315 0.029220122188509973 0.015292878598966962 0.016325063291810965 0.029321861215882872 0.03711168696667793 0.030465387808911306 0.029734857508505019 0.021460567010417011 0.035751591632768503 0.033511834786927007 0.026684005759201841 0.031778370788279109 0.0045388144327338899 0.032622088987383044 0.040892455958660937 0.033112356814052453 0.028707611464128695
leaf_weight=5578.7398124113679 5941.5056491494179 5255.9402649700642 2342.6241447478533 7300.5778816267848 851.31547493487597 1024.8294753208756 4856.1820537447929 844.13170503079891 577.75606541335583 2395.640672840178 4459.1526492163539 2446.6131939962506 10911.514340430498 2463.4908165186644 296.505226098001 13889.848822683096 2487.6866111680865 10332.416124157608 1418.7766974046826 1225.0326232761145 445.03460203111172 4857.5340921506286 3274.102733053267 2376.7997233048081 81.647186681628227 126.74468319118023 55.766216941177845 12340.290151394904 759.021533831954
leaf_count=18670 20837 33091 6690 41876 1729 5813 27387 3791 2450 12316 15333 13956 44450 19609 2126 63369 4576 44763 6224 6685 1497 13348 14872 8390 549 823 290 36233 4427
internal_value=0 0.0281582 0.027631 0.0266382 0.0312649 0.0246881 0.0277824 0.0250283 0.0286519 0.0301363 0.0298865 0.0224231 0.0283313 0.0213504 0.0191054 0.0296847 0.0328522 0.0302455 0.0295354 0.0259009 0.0267857 0.0312617 0.0301893 0.0284808 0.0261452 0.0166625 0.0158596 0.0337833 0.0252293
internal_weight=0 61240 55661.3 40342.4 49977.2 14918.6 25423.9 6100.07 19323.8 29207.7 28356.4 7172.97 13307.2 6148.14 3701.53 14467.6 20769.5 15318.8 12976.2 2643.81 7745.61 15049.2 10191.7 5732.55 3355.75 2646 2519.26 14828 1055.53
internal_count=476170 303537 284867 220505 172633 90417 130088 36882 93206 110987 109258 47044 56766 41231 27275 65819 61646 64362 57672 12909 43373 52492 39144 23811 15421 20722 19899 40809 6553
shrinkage=0.01


Tree=26
num_leaves=30
num_cat=0
split_feature=7 14 10 68 14 5 11 20 14 18 1 11 0 1 34 147 33 34 9 39 8 11 14 105 20 16 5 5 17
split_gain=2564.83 2289.46 994.774 864.83 648.702 624.794 551.731 548.759 482.381 416.764 442.208 408.918 404.631 394.847 393.276 360.256 359.41 473.853 420.173 421.658 343.908 380.877 362.128 340.756 334.873 329.489 323.48 315.483 313.009
threshold=1.0000000180025095e-35 -0.28594576365387137 -0.22148721449036771 1.0000000180025095e-35 1.210048293780001 1.0000000180025095e-35 0.029965150357857892 1.0000000180025095e-35 -1.1726501525248787 1.0000000180025095e-35 -1.0805594284883109 0.087871568587448309 1.0000000180025095e-35 -1.4509225687807323 1.0000000180025095e-35 1.0000000180025095e-35 1.0000000180025095e-35 1.0000000180025095e-35 0.83068921267800666 1.0000000180025095e-35 1.0000000180025095e-35 -0.030744762662991334 -0.93313502051866171 1.0000000180025095e-35 1.0000000180025095e-35 -2.0470180864951906 0.33918037438023879 1.4679809865827163 1.0000000180025095e-35
decision_type=2 2 2 2 2 2 2 2 2 2 2 2 2 2 2 2 2 2 2 2 2 2 2 2 2 2 2 2 2
left_child=1 2 5 -3 6 15 16 -2 -4 27 -11 20 -12 23 26 -1 17 -5 -19 -20 24 22 -22 -10 -7 -26 -9 -8 -28
right_child=7 3 8 4 -6 11 9 14 13 10 12 -13 -14 -15 -16 -17 -18 18 19 -21 21 -23 -24 -25 25 -27 28 -29 -30
leaf_value=0.025998165485564443 0.035461694278843901 0.032846622949130662 0.022463986818612294 0.028847383121644397 0.030954008923325831 0.026135191607355047 0.030521664237505193 0.033121355839665821 0.034920766526254567 0.031559163737910831 0.025250624171560807 0.025034200389297556 0.028781565154504932 0.027973318254149754 0.028258574607920195 0.045306145793147491 0.020896697256558881 0.022884677760434784 0.033109082582525033 -0.003533284076615093 -0.011147835298079792 0.046079859846203518 0.028668688052845646 -0.011941176032212061 0.0093874076421357113 0.019907224050406399 0.032824605314760794 0.02479318595260737 0.026810344168425763
leaf_weight=11065.811089001596 3691.5157265141606 5899.0955979973078 1488.7133570164442 5374.2828636318445 11064.624640703201 806.60446414351463 13674.347268603742 8309.7313988059759 1070.0540272146463 2571.9258090481162 6475.0089160576463 4112.0749558359385 6506.9833188802004 13512.894668653607 3567.6328610479832 97.486916773021221 1117.3568745031953 3405.942729473114 667.99869897216558 32.953888013958931 27.336438365280628 110.43568396568298 138.93343826383352 15.745165668427942 322.41531901806593 3888.8235967606306 1564.2583871632814 1034.0878666564822 1936.7866329997778
leaf_count=59641 7490 16582 8771 24112 34240 4122 50319 23755 2853 9202 29654 23958 26059 61972 13970 278 6442 19248 2775 261 301 447 865 116 2979 28618 4736 4564 7840
internal_value=0 0.0279789 0.0260238 0.0292183 0.0288061 0.024567 0.0282245 0.0319994 0.0278865 0.0289121 0.0277709 0.0226684 0.0270204 0.0284395 0.0311682 0.0261668 0.0262609 0.0268931 0.0243357 0.0313864 0.0208309 0.0316841 0.0221225 0.0342412 0.0202324 0.0191018 0.0320471 0.0301189 0.0294975
internal_weight=0 94481.9 36657.3 57824.6 51925.5 20569.9 40860.9 19069.9 16087.4 30262.4 15553.9 9406.62 12982 14598.7 15378.4 11163.3 10598.5 9481.18 4106.9 700.953 5294.55 276.706 166.27 1085.8 5017.84 4211.24 11810.8 14708.4 3501.05
internal_count=476170 418379 194921 223458 206876 121209 172636 57791 73712 119798 64915 61290 55713 64941 50301 59919 52838 46396 22284 3036 37332 1613 1166 2969 35719 31597 36331 54883 12576
shrinkage=0.01


Tree=27
num_leaves=30
num_cat=0
split_feature=40 2 14 20 5 6 12 10 20 11 5 4 16 1 5 14 89 68 33 1 1 168 9 60 17 15 1 0 5
split_gain=2441.99 1727 1062.87 1096.95 1046.73 699.566 630.919 620.931 573.143 553.293 533.498 462.47 430.645 402.898 384.313 356.845 352.231 348.31 388.217 339.944 341.692 330.051 329.356 475.971 315.536 324.558 310.831 354.489 345.302
threshold=1.0000000180025095e-35 1.0000000180025095e-35 2.3864993970154162 1.0000000180025095e-35 0.33918037438023879 1.0000000180025095e-35 -2.219171967209546 -0.22148721449036771 1.0000000180025095e-35 1.0000000180025095e-35 1.0000000180025095e-35 1.0000000180025095e-35 0.83053509967063288 -1.4509225687807323 0.62138052743085814 -1.2986912131159236 1.0000000180025095e-35 1.0000000180025095e-35 1.0000000180025095e-35 -0.33983314790346841 -1.4509225687807323 1.0000000180025095e-35 0.83068921267800666 1.0000000180025095e-35 1.0000000180025095e-35 0.38271738860744059 0.77125627297379562 -0.70593428417481552 1.4679809865827163
decision_type=2 2 2 2 2 2 2 2 2 2 2 2 2 2 2 2 2 2 2 2 2 2 2 2 2 2 2 2 2
left_child=1 2 3 15 9 6 -5 16 -2 17 19 12 26 -11 -13 -1 22 -3 -19 20 -7 -12 23 24 -6 -26 27 -10 -28
right_child=8 4 -4 5 7 10 -8 -9 11 13 21 14 -14 -15 -16 -17 -18 18 -20 -21 -22 -23 -24 -25 25 -27 28 -29 -30
leaf_value=0.013495420305368834 0.03342940250573874 0.031477262283002017 0.033253554088594622 0.034792113585619844 0.02964504329690985 0.035818604313987604 0.028056654486582362 0.025619405669603249 0.033759240397356484 0.033017491233652135 0.024516857103603244 0.028925698480700476 0.027512305921640366 0.026925108530635553 0.021562697829755 0.031271473574509587 0.034205765609499554 0.023902929971882425 0.01529144695507907 0.02899024115411836 0.02532335811210169 0.034425607829642206 0.024266937830473557 0.013521630344941353 0.018668772239193891 0.029026083702347851 0.034259554264593144 0.029106070278021555 0.025724923657011414
leaf_weight=114.50802560150623 5232.0253538563848 518.85508434474468 3655.4749209433794 1521.1331839114428 360.44342844188213 326.52806306630373 16221.20385812968 4043.231763496995 2097.9220602139831 1175.6697250977159 14063.130554415286 1842.348517626524 4188.8790777549148 14149.220476716757 1152.231899112463 8194.2731714323163 185.43448097258806 4338.9182274490595 595.33118821680546 7280.2989042773843 6205.4816020429134 344.39038594067097 1523.8537579849362 1214.0803848281503 2839.4488594010472 338.63312141597271 4123.424842864275 7455.2939939796925 535.63681719452143
leaf_count=580 11792 1825 8540 4359 1936 911 62189 19276 6868 3601 69271 7015 15358 64024 5676 21835 917 25359 4213 29418 28235 1347 8646 9252 20087 1641 12222 27459 2318
